-0.0032258662
0.0023456519
-0.003399682
0.002350004
-0.0030104467
0.002483055
-0.004429929
0.0010003751
0.002182562
0.0032428023
0.0028747474
-0.0024696141
0.0028794575
-0.0030358157
0.0035921982
0.0040205824
0.0022870575
0.002426349
0.0026073663
-0.0019382285
-0.002280978
-0.0013088366
0.0028768694
0.0029661867
0.0042065433
0.0027507013
0.0026307371
0.002484438
0.0032168177
-0.00208251
-0.0029929308
-0.0038147313
-0.0025722214
-0.003047216
0.0029588107
-0.00471978
0.0025626388
0.0033509503
-0.0028873354
0.002434519
0.002143339
-0.00019148058
0.0026343903
-0.0030254635
0.0023452186
-0.002996804
0.002148849
0.0031461178
0.0047289757
0.0027644415
-0.002237942
0.0027107848
0.0017120778
-0.0024094717
0.0039243107
0.0030562668
0.0032677709
-0.00011355404
0.0028598392
0.0026219103
0.0031802293
0.0033149116
-0.00509648
0.0028648544
0.003079883
0.0028853999
0.0023571663
0.0027618
-0.0023721482
0.002568786
0.0019407535
0.003084543
-0.002863953
0.0032830655
-0.003088859
0.0027874217
0.0029448944
-0.005088272
-0.004065341
-0.0032688994
-1.2238444e-05
0.0030464882
0.002429091
0.0023777634
0.003377906
0.003190907
-0.0026622687
0.003541157
0.0024086765
0.001673554
0.003458014
0.0028901251
-0.0028111262
0.002570373
0.0030403945
-0.00356875
0.0024097704
-0.0025979625
0.003228889
0.0001454927
-0.00259449
0.0029179936
0.0020791339
-0.0029411733
0.002777996
-0.0023160225
-0.00029877515
0.0027490086
0.002885241
-0.00308353
-0.0028259773
0.0021236443
0.0029063886
-0.0018604756
-0.0050484054
-0.0023560023
0.0024432323
0.0025675567
-0.0019461279
0.0029515512
0.0015007058
0.0026129838
-0.002275742
-0.00070534885
0.0023805145
-0.0029211154
0.0019426256
0.0030517317
0.002866872
-0.0023948564
0.0031680109
0.0028597435
0.0039729844
0.0027848482
-0.0024391431
-0.0028328495
-0.0025339513
0.0026000058
0.0027311996
-0.0027442134
-0.0028127693
0.002403264
-0.0031666546
0.0027655081
0.0010926969
0.002781443
0.003337083
-0.0024645196
0.0032775707
0.0028064088
0.0019225099
0.002709042
0.0030335388
0.0024701806
-0.0024623252
-0.0025898537
0.0024446482
0.0027307353
-0.0030442243
0.0032320628
9.270527e-05
0.0031474344
-0.0029646372
0.0025253983
0.0024420533
0.0023161927
-0.002807684
0.0028487914
0.0026018918
0.0025424922
0.0029906512
-0.002159646
0.0016282443
0.0021362475
-0.0027632625
0.0037174833
0.00299725
0.0028921664
0.0030822745
-0.0025755812
-0.002625182
0.0030870377
-0.0030061824
0.0032548474
0.0022080478
-0.0027522906
0.0029618542
-0.0030550729
-0.003301901
0.0029025483
-0.0026757102
0.0036529792
-0.0026378967
-0.002560968
0.0029457335
0.0035641375
0.0025460552
-0.0027388004
0.0026124541
0.0028498843
-0.0013300274
-0.0021584001
0.0026729614
0.002853346
0.0030731396
0.0020758414
0.002090901
0.0024301123
0.0028677625
0.0026787866
0.003360642
0.00013247157
0.0027851474
-0.00059805874
0.0030860556
-0.0031466659
-0.0027331943
-0.0028700174
0.0036710245
-0.0029106028
0.0022943704
0.003145499
-0.0026627476
-0.002697664
0.0012790551
0.003068217
-0.0032079932
0.0024697208
0.0028036204
0.002626838
0.002294748
0.0022732478
0.0023695084
0.002811346
0.0027464028
0.003669912
0.0026405016
0.0028662137
0.0031731448
-0.002403523
0.0027855912
0.0029649253
0.0032901873
0.0038541602
-0.0020413687
0.002691608
0.0021603063
0.0028414563
0.0028451197
-0.0023499748
0.0021997467
0.0025630621
-0.00081901666
-0.002241023
0.0033902558
-0.0028601873
0.0019370986
0.0028765206
-0.0025675518
-0.00020066786
-0.0026576587
-0.0025977243
0.0027021708
0.0026338424
0.0030129598
0.002938944
-0.0034699491
0.002699263
0.0032112617
0.0034103312
0.0031487206
0.0011908076
-0.0029614347
-0.003566753
-0.002593674
0.0029783256
-0.002319431
0.00021781771
0.002300816
-0.0030750246
0.0027140512
-0.0030352394
-0.0004711179
-0.0026574498
-0.0024741278
-0.0022526013
-0.0026227315
0.0026200763
-0.0020454677
0.0026434988
-0.0027198324
-0.0033965227
0.00282867
0.0025456778
0.0032763826
0.002792757
0.002536679
-0.0026780914
0.0011627192
0.0024409215
0.0024254108
0.0030439778
0.002550888
-0.00298582
-0.0031855544
0.0024007391
0.0019330259
0.0023946615
0.002240906
0.0028585608
-0.0024140943
0.0033161135
0.00067058316
0.0030213436
0.002913932
0.0028903536
-0.0026508418
-0.00011777592
-0.002376102
-0.0031257935
0.0032271137
-0.0022770972
-0.002547745
-0.0014320761
0.0030050275
0.0025763186
-0.0024141546
0.0027274808
0.0029213352
-0.0026188726
-0.0037966452
0.002607085
0.0032886318
0.0022239252
0.0027104157
0.0025067378
-0.002352751
0.0024391343
0.00245642
0.002612965
0.0029022573
0.003251501
-0.0026697163
-0.0028678204
-0.0026080615
0.002550589
-0.0025872588
0.003052664
0.0025606367
0.0027417266
0.000817617
-0.0023407927
-0.0025390203
0.00016115876
0.003365034
0.0025902647
0.002972415
0.0027731669
0.0026085887
-0.0033432916
0.002579786
0.0026449212
0.0025479407
0.002010174
-0.0027054746
0.00029315357
-0.0025631473
0.0021870325
0.003103935
0.0025975106
-0.0024389124
-0.0037093398
0.0022502127
0.0022390387
0.0010396666
-0.0026563786
-0.0024656858
0.0027202591
0.0024254161
0.0028748107
-0.0033831936
0.0019628457
-0.0038527364
-0.0028498156
0.0024649785
0.0026539813
0.0031802137
0.0039022246
0.0032644756
-0.0031995766
-0.0023860647
0.0026365796
0.0030826288
0.0009117449
-0.0026592703
0.0020793702
0.0026644543
0.0028039517
-0.0029257487
-0.002698433
0.0037018247
-1.087741e-05
0.0030755077
-0.0026269346
0.0026618855
0.0028581123
0.0024394242
0.002630906
-0.0010855654
-0.0019404625
0.0028025187
-0.0028342525
-0.0028373657
-0.0023806766
-0.0033263622
0.0037200055
-0.0028609885
0.002960537
0.0028171963
-0.0027261812
-0.0033811356
0.00242577
0.002834173
0.0034852684
0.0020767252
0.0025959818
0.0028274348
0.0025542278
0.00087309675
0.0024964353
0.0026063349
0.0039529125
0.0026337113
0.0026337237
0.0027269481
0.0027525334
-0.00196167
-0.003291442
-0.0035562392
0.0020399631
0.0032084186
0.0024954723
0.0028159395
0.0031599368
0.0026598237
0.0032008544
-0.0019478374
-0.0028504692
0.0036703686
-0.0030206377
-0.0028799004
0.0024654816
0.0022919641
0.001984805
0.0028270918
0.0022326089
0.0027370246
-0.0029668305
0.0022862123
-0.0011327154
-0.0026725666
0.002373055
0.002534881
-0.0032103597
0.003376203
-0.0027697107
-0.0029143612
0.00027278307
-0.0026388348
0.0035695562
-0.002828909
-0.0033666505
-0.002345148
0.002759901
0.0025289601
0.0028313277
0.0033492788
-0.0018866553
0.0018120805
0.003267298
0.0037591856
0.0029065653
0.0031261481
0.0024026758
0.0022706725
-0.0024001175
-0.0030685957
0.0029459153
-0.0027147809
0.0029690138
0.0022465475
0.0027200277
-0.0012012024
0.0028149756
-0.0026263385
-0.0022400978
0.0022132127
0.0020232396
-0.003048457
0.0023931374
-0.0031906492
0.000863225
0.0029947998
-0.0023344744
0.0036434848
0.0024956968
0.00264612
0.0024919976
-0.0014983073
0.0022262724
-0.0024932213
0.002486777
0.0028958756
-0.002736305
0.0026761403
0.0032816208
0.0025087604
-0.0027386937
-0.003221161
0.0026037113
0.0029726864
0.003196107
0.0026340594
-0.0025177181
-0.0029765903
0.0030469159
0.002259271
0.0035243996
0.0035315799
-0.004015853
0.0026445775
-0.0034113508
-0.0021643646
0.0021702135
0.003113084
-0.0022186679
0.0027653489
0.003170285
-0.00017419946
-0.0024549963
-0.002696373
-0.002619086
0.0022765328
-0.00338465
-0.002806915
0.0040268945
-0.0026975358
0.002911196
-0.0032249363
0.0025497568
0.0026867785
0.0021943166
-0.003036825
0.004168647
-0.00068781833
-0.0044586603
0.0035591219
0.0021932016
0.002210017
0.0028171837
-0.0032354768
-0.0011473245
-0.004237811
0.0028032423
-0.0023571476
0.0024602418
0.0022017723
-0.0025907757
0.0024704682
0.0024761031
0.0030035733
0.0019823662
0.0026583483
-0.00045104514
0.002624419
0.0025187787
-0.0028516888
-0.00014132724
-0.0022723984
0.0023290603
-0.0036811996
0.002312324
0.0030209343
-0.0030352206
0.0032161425
0.0036791237
0.0026128094
0.0020989818
0.0024802082
-0.0022485727
-0.0031475895
-0.003291872
0.002489456
0.0029059306
0.003918953
0.0029830437
0.0027055044
0.0025988237
0.0032811735
0.0027899048
-0.0029378077
-0.0029021883
0.0029838977
0.0028745132
0.0023165843
-0.0023679682
0.0024183546
0.0030355477
0.0032385327
-0.00050108397
0.0025043825
-0.0041684783
0.002864881
0.0027092588
-0.0024471937
0.0025441796
0.0022925236
0.0031073063
0.0022371763
0.0028068284
-0.0026308568
0.0035840645
0.0027540098
0.0016833844
-0.0027565057
0.0023371165
-0.00047480638
0.0025793146
-0.0030177773
-0.0031826333
0.002551812
0.0006062449
0.0030656653
-0.0032502462
0.0030475794
0.002571534
0.0023152754
0.0029111363
0.002409756
0.0036492024
0.00395647
-0.003166483
-0.0023038022
0.0026845261
0.0028407914
0.0024268467
0.0025923443
-0.0027835192
-0.0028145718
0.0021107586
-0.0027880096
0.0029320633
0.0023160344
-0.0024106652
-0.0024079895
0.0034829944
0.00082830834
0.0029448173
0.002555377
0.0032593044
0.0037208698
0.0011547945
0.0030070073
0.0027897914
0.0022827894
0.002897534
-0.0028453588
0.0022497769
0.0026201927
0.00204469
-0.0025147614
-0.0024157304
0.0029977758
0.002626219
0.0017243888
0.0031191795
0.0018392529
-0.0022415237
0.0030784972
0.0030962448
-0.0007371917
-0.002834425
-0.002663508
-0.002863816
0.0026736013
0.002599578
0.0031249302
0.002677368
0.002691899
-0.0022989966
0.002152841
-0.0026045667
0.0029744087
-0.0031663792
0.0026184304
0.0028122973
0.0023461813
0.0019793948
0.0024633084
0.001691802
0.0019820747
0.0026800842
0.0032885827
0.003327089
0.0028340411
-0.0023001716
0.0030442365
0.0035150156
-0.0019987095
0.0029427889
0.0027397429
-0.0029522404
0.0036049294
0.0001911758
0.0020886553
0.003210308
-0.0020456663
-0.0032926202
-0.0026590088
-0.0027919705
0.0038020592
0.0027461853
0.0033829845
0.0024091273
0.003006476
-0.0023240624
0.0021513167
0.003661287
-0.0022635234
-0.0024457313
0.002628615
0.002291345
-0.003175288
-0.0014219298
-0.0024547786
-0.0028879398
-0.0018940273
-0.0027316096
0.0022545247
0.0018944411
0.0029193799
0.0027625095
-0.0025458913
0.0033039418
0.0025013303
-0.0027448742
0.0023930387
0.0031087229
-0.004544152
0.002801601
-0.0020871246
0.0026910289
0.0024942544
0.0035035277
0.0012706566
0.0024692458
0.0032424482
0.0023884277
0.0034084837
0.0023462176
0.0022384573
0.003412989
0.002007004
0.0034619344
0.0019220974
0.0027327326
-0.002573571
-0.0030473727
0.0018375132
-0.0022126301
0.0027975526
0.00076300954
0.0026402548
-0.002383652
0.00034024837
0.003192061
0.0025915075
-0.0027144107
0.0026467012
0.0021058293
0.00317324
0.0029105428
-0.0025842513
0.0022861122
-0.0038376239
0.0033355628
-0.0023394988
0.0025502793
0.0035592176
0.0014164201
-0.002409197
0.0012137995
-0.0026491885
0.0019644522
-0.0028693546
0.0033613914
-0.002393105
0.0027797918
-0.002664077
-0.002124449
0.0032755581
-0.0028873864
0.002526318
-0.003178672
0.0022978506
0.0039493805
0.0027508384
-0.0036614742
0.0025574886
-0.0030292573
0.002299484
-0.0023849213
-0.0023513446
-0.0028301955
-0.0033487196
-0.0028294986
0.0014406055
0.002684813
0.0035178722
0.0014256007
0.0030202141
0.0031205572
0.0024955408
0.0031767334
0.0024945694
0.002460083
0.002176267
0.0023040595
-0.002195974
0.0033649367
0.0030052713
0.0026461221
0.0027207835
0.0021378722
0.002094173
0.0023366497
0.0028008635
0.0031783448
0.0027425315
0.002971877
0.0025505265
-0.002619225
0.0034821
0.002702802
-0.003416203
0.0031127422
0.0027065007
-0.002824227
-0.0029389805
0.0021391534
0.000113434166
0.0025570316
0.0019398654
-0.0024237793
0.0029187496
-0.0034281865
0.002490946
-0.0009695215
0.002812884
0.002797093
0.0027905996
0.0028211917
0.0027903344
0.0022248642
0.0028591054
0.0026655064
0.004361277
0.0017318325
-0.002481469
0.0024691047
0.0031962963
-0.0027514088
-0.004043308
0.0025982726
0.0023833613
-0.0030227166
0.0031888613
0.003206871
-0.0012639987
0.0032495935
-0.0026010966
0.0024369052
0.0020671312
-0.0025837112
0.0027188852
-0.0016642062
-0.0026413803
0.002639732
-0.002448469
0.0022667588
0.0010676471
0.002260908
-0.0035605382
0.0029535657
0.0030945507
0.0030999137
0.0042735906
-0.0023479643
0.0028935776
0.0031505062
-0.002807918
-0.0023553562
0.003185987
0.0021798797
0.0025714317
-0.0005098479
-0.002834368
-0.0030983402
0.0032608756
-0.0024576276
2.6503247e-05
0.0026220065
0.0031156493
0.0023645214
0.0031288061
0.0021743567
-0.003919761
0.0025072265
0.0027382062
0.0028166864
-0.0033762741
0.002838385
0.002595711
0.0026280927
0.0025752655
0.0017730017
0.0026290957
0.001986276
-0.002481829
-0.0021227726
0.0032421835
0.00212963
-0.00036061855
0.0026428497
0.0026441363
0.0027318832
0.0030708357
0.0023492277
0.0020699634
0.0025172026
-0.0023556685
0.0027598983
-0.0040324144
-0.0030007896
0.002563813
-0.0029683984
-0.0024586911
0.0034820172
-0.0029093162
0.0034522517
-0.002852785
0.0032382633
0.0030562985
0.0031172766
0.0023359254
0.0029338805
0.0021623578
0.002545678
0.0020093478
0.004163764
-0.0028426955
-0.003073788
0.0026930112
0.00293187
-0.002744873
-0.0029191868
-0.003019708
-0.0018109458
-0.0022487121
0.0023376103
-0.00042999448
0.002947517
0.002439555
-0.002978456
-0.0029610225
0.0025552984
-0.0027601088
0.0025965148
0.0026819059
-0.002995797
0.0025731588
-0.0024628786
0.0029263904
0.000977578
-0.002712569
-0.0026426674
0.0025027152
-0.0019106254
0.0025066498
0.0026061062
0.0035297994
-0.0034693917
-0.0022677577
0.0029163104
0.0026693728
0.0028747285
-0.002523383
0.0025256465
-0.0027843611
-0.0042923335
0.0026064126
0.0034894166
0.002928697
-0.0028306276
-0.004090928
0.0029367837
-0.0030148448
-0.001968259
0.0029489477
0.002175294
0.0021919317
0.0028451039
0.002825537
0.0028445877
0.0026310978
0.0033119204
0.0028285468
0.0024549358
0.0024820117
0.0029272025
-0.0031375855
-0.0025989774
0.0024072737
-0.0025992603
0.0036144184
0.0017527286
0.0026295984
-0.0029208655
0.00014267524
0.0020358698
-0.0026639076
-0.002504244
0.0030784695
-0.00368097
0.003043009
-0.0041451124
-0.0030831394
-0.0027467832
0.0020424102
0.0025038864
-0.0025399185
0.0020073224
-0.0024940155
-0.002656841
0.0028055622
-0.0033941804
-0.0023665132
0.0023893728
5.753267e-05
0.0024094875
0.003180376
0.001537551
0.0017611436
0.0029697577
0.0025838253
0.0032027387
0.004055566
0.0032328041
0.002399567
0.0028739402
0.003050399
0.0028908441
-0.0027568273
-0.0023690227
-0.0021513458
0.0029932475
0.0028177036
0.0028535456
-0.0024605673
-0.0028803465
0.0028413634
-0.003559626
-0.0020858273
-0.0026676913
-0.001103502
0.0025517368
0.0021881429
0.0024455588
-0.002470519
0.0028106468
0.0031209101
0.002742884
-0.0022340468
-0.003059275
-0.0032783016
0.002707468
0.0023256599
0.0034593986
0.0019599448
-0.0035897451
0.0023470528
0.0033669646
0.0030233269
-0.002838885
-0.0037760881
-0.0021810909
0.0016359863
0.0025719213
0.0020484256
-0.003009639
0.0025848679
-0.0026602421
-0.00281237
-0.00292601
0.0033233382
0.002331786
0.0020441005
0.00270741
-0.0031369787
0.0026099917
-0.0025415162
0.0021079301
0.003260312
0.00075139146
-0.0030753904
0.0022776267
-0.0021873652
-0.001207035
0.0023020227
-0.0022677358
-0.0034540107
0.002502256
0.0036011992
0.000762306
-0.0020571803
0.00082659366
0.0027932613
0.003000252
-0.0029122806
0.002492275
0.002939914
-0.00268644
-0.0024616206
0.003466784
0.0032461172
0.0023582848
0.003001215
0.002426455
0.0033411128
-0.0026190581
0.0030631342
-0.0027535486
-0.0026907625
0.0021861058
0.0029797764
-0.0023195446
0.0028646786
-0.0026215354
-0.0025839594
-0.0036182692
0.0022048936
0.0025577685
0.0029470494
-0.0028298956
0.0026908133
0.0030982003
0.002960625
-0.0028907666
0.0032214934
-0.0030300661
-0.0030824314
0.0030404872
-0.0031553071
0.0028228883
0.002620453
-0.0024160238
-0.0027470475
0.002524241
0.003116799
0.0002415782
-0.0022508237
-0.0025044354
-0.0023955763
-0.0030517715
0.002749418
0.0012485114
0.0024578357
0.004136071
-0.0025497666
-0.0032119786
0.003168687
0.00474885
0.0031601777
-0.002498868
-0.0002607559
0.0031601072
-0.0032485551
0.0022632366
0.000113427974
0.0020474095
0.0031096288
-0.00038458544
0.0028437213
-0.0022867073
0.0026230568
0.0026980645
0.0027764097
0.002516605
0.0023122907
0.0034670425
0.0032151756
0.0028291843
-0.0029200236
3.387859e-05
0.0025803235
-0.0024627605
0.0026169175
0.0026575767
0.0029451947
-0.0028159684
-0.0036349655
-0.0034807005
0.0026299302
0.0023731028
0.00371669
0.001578892
0.0023349116
-0.0028497633
0.0005482649
-0.0033592838
-0.002392236
0.0034516056
-0.0021974118
0.0027973873
0.0029940414
-0.0028579985
0.0026121482
0.001805478
0.0032210283
0.0024326015
-0.0029566486
0.0031674409
0.0028818878
0.0023539804
-0.00067336304
0.0027165676
-0.0025164736
0.0025161416
0.0030450593
-0.0027503415
-0.002265432
-0.0033655756
0.0018050334
0.0001841724
0.0022362908
0.0031783478
-0.0025461472
0.002828789
0.0023746325
0.0026032124
0.0027948334
0.0028087266
0.004622985
0.0017271625
0.0024788794
-0.0027568587
-0.00030121134
0.002135843
0.001460035
-0.0039121755
-0.002738119
0.0022086825
0.0024796296
0.004795018
-0.003712742
0.0026320815
-0.0019993226
0.0019411944
-0.0032434002
0.0028866476
0.0027032194
-0.0026577497
0.0023206603
0.0028693906
0.0026589818
0.0018576075
0.0023229187
0.002275833
0.0024747013
0.0038440968
0.0023303349
-0.003106523
0.0026957437
0.0025340936
0.002420912
0.002553162
0.003160716
0.002852421
0.0027116989
-0.002598178
0.00323226
0.003283317
-0.0028464978
0.0027351428
0.002370892
0.0032021743
0.0030904897
0.003082882
3.331998e-05
-0.0027265165
0.0029081453
0.0028391741
-0.002466635
-0.0031812724
0.002383036
0.0026525375
0.0024151744
0.0024177418
-0.0025131118
0.0034633263
0.002975514
0.0022728532
0.0025043671
-0.0030315395
-0.0009054533
0.0028308346
-0.0029032282
-0.0027077934
0.0029927671
0.003320861
-0.0034753184
-0.00040704288
0.0040669977
0.0030665467
0.0027535222
0.002933189
0.003425983
-0.0038129422
0.0031401438
-0.0025224243
0.0027287407
0.002835566
0.002490774
0.0033175552
0.002831469
0.0028437246
0.0009362239
0.0026960485
-0.001841407
0.0027680637
0.002824126
0.0029833065
0.0027783073
0.0027747646
0.00094848196
0.0023940995
0.0032314768
0.001302588
0.0023681184
-0.002688632
0.0029575073
-0.00201145
0.0029444743
-0.0030487895
0.0028932595
-0.0022999453
0.003357126
0.002979648
0.0029695798
-0.0027832484
-0.002484066
-0.003613182
0.0024552338
0.0025276162
0.0031442204
0.0043721693
0.0029275585
-0.0027817672
0.00027487322
-0.0026072804
0.0027606771
0.00330528
-0.0034191173
0.00042217193
0.00320519
0.0027423312
0.0028038078
0.0037952876
0.0025048493
0.002509796
0.0036667276
0.0010364206
0.0032211833
0.002254214
-0.0037073798
0.002548861
-0.0035781749
-0.0023857672
-0.0029340226
0.002949271
0.0029606936
8.5502106e-05
0.0035091667
-0.0036011403
-0.0029978144
0.003177616
0.002355034
-0.002850636
-0.0006906644
0.0028956018
0.003308935
-0.002696674
-0.0028603585
-0.0027541148
0.0040308107
0.0022908356
-0.0026719635
0.0033873697
0.0025446303
0.0029612936
0.0015139576
0.0021676202
0.0032208632
-0.0034526265
-0.0030999482
-0.0031729285
-0.0029304628
0.0035877395
-0.002349254
0.0022599844
-0.0031710472
0.0029118964
0.002487768
-0.002770128
-0.003227709
0.0026019174
0.0031971445
-0.002924806
-0.0020401475
0.0025161956
0.0025922584
-0.002565805
0.0026447831
0.0026260596
0.0032611545
0.0024870457
0.002351817
-0.002701223
0.002462976
-0.0034773038
0.0032960726
0.00079185254
0.0026172786
0.002266374
-0.0021213554
0.0028259829
0.00022280683
0.00284825
-0.0023519564
0.0030172123
0.0026522633
-0.0027587588
0.0032605787
0.002774096
-0.0027098437
0.0032967655
0.0025108564
0.0030674085
-0.003502699
0.0029633874
-0.0025954584
0.0029655206
0.0024564068
0.0019409826
0.0035778775
0.0027122183
0.002184863
0.0001341728
0.0024770068
0.0023103862
-0.0028722768
0.0024006628
-0.0027858338
-5.5883946e-05
0.0029151896
-0.0024765218
-0.0031952756
0.0029733279
-0.00013634007
-0.0028216164
0.002676179
0.002644449
0.0025895152
0.0035688719
0.0027145075
-0.0025280924
0.0032533351
0.0023569097
-0.0026024182
0.0031197628
0.0023440898
-0.0026786327
0.0014879
0.0024691864
0.0035005175
0.002461277
0.0024794408
-0.0034985496
-0.003068144
0.0022862486
-0.0028602385
0.00278899
0.0028961152
0.0020313351
0.0030270703
0.002384523
-0.0021715395
0.0026975924
-0.00279128
0.0025066729
0.0029962678
-0.0031707366
0.0033079374
0.0022180283
0.0026964396
-0.0028237125
-0.0022319895
-0.0003013017
0.0025317208
1.6812513e-05
0.0030070918
-0.0024731809
0.0021846972
-0.0026117305
0.0023395764
0.0023739615
-0.0027702474
-0.0014785788
0.0025864504
0.0020787825
0.00022566319
0.0027769927
-0.0027926934
0.0024314502
0.003196309
0.00265281
0.0026426981
-0.0033599206
-0.0033152346
0.0029472453
0.0026730192
0.0023899113
0.0034041593
0.002461024
-0.0012911633
0.0029498134
-0.0025899818
0.0029594586
-0.0027942462
0.0023517138
0.0031033454
-0.0030170423
-0.0023267574
0.0022582028
0.0023334683
0.0024969117
0.0037387281
-0.0027446754
-0.0027369205
-0.0020773986
-0.0019998811
0.0010890275
0.004281476
0.002812719
0.0029851063
0.0025204741
-0.0032455095
0.0029952652
-0.0034453927
0.0009326235
-0.0024033175
0.00278737
0.0031285232
-0.0027698802
0.003190471
0.003093544
-0.0032284982
0.002342517
0.004773565
0.0030532745
-0.0025621525
0.0041839355
0.0024632188
0.0024935491
0.002247239
0.002783501
0.003018068
-0.0024861153
0.0032273596
-8.309302e-05
0.002868188
0.0027310897
0.0032088188
0.0022723777
-0.0030226968
-0.0026383672
-0.003238483
0.0038529055
-0.002456302
-0.003177091
0.002588597
-0.0026131314
0.003512011
0.0017234327
0.0030430562
0.0029632563
-0.002520935
0.0025525014
-0.0030012084
-0.0030446125
0.0022960599
-0.0029570383
0.003075319
0.00230204
-0.0041129235
-0.0024403462
2.2079837e-05
0.0027223767
0.002452011
-0.002688427
0.0035173835
-0.0027510978
0.0028771563
7.129744e-05
-0.004094669
-0.0025942735
0.0034738174
-0.0022145258
-0.0024756575
0.0027108244
-0.0030958434
0.0030628494
0.0036026645
-0.00359302
0.0034474593
0.0019559963
0.002764689
-0.0028689445
0.0028090703
-0.0031826943
0.002306821
-0.0023932362
0.002618035
-0.0024295684
-0.002211572
0.0034262182
0.00259227
-0.0032792496
0.002000267
0.0030559488
0.003207403
0.0027631707
-0.003271996
-0.0024914788
-0.0028424705
-0.0038505553
0.0023891716
-0.0025485938
-0.0011056174
-0.002723744
0.00049518177
-0.003336389
0.0028463574
0.0024371005
0.0027393564
0.0023971293
0.0033912815
-0.0027884382
0.0022619453
-0.0027441233
0.0032067727
0.0025236164
0.0025771286
0.0027735513
0.0018852139
0.0025465533
0.0016429627
0.0018839781
0.0028023035
0.0025605678
0.0026602028
0.0028280022
0.0020908471
0.0029068615
-0.0024955743
0.0035373135
-0.002327297
0.002225325
-0.0033262002
0.0016555814
0.0043128654
-0.0027061913
0.002741343
-0.0025357136
-0.0028579342
0.0033625404
0.002370047
0.002898464
-0.0034014352
0.0019950508
0.00082436716
-0.0030353551
0.0024072886
0.002374652
0.0027738623
0.0015202245
-0.002552131
0.003658854
-0.0027082008
0.0027731915
0.002034336
0.0028835938
0.0031984802
0.0027572887
0.0030837874
-0.0025058486
-0.00075120234
-0.0024872618
-0.002331911
0.003590993
0.002935936
0.0032346714
0.003333796
0.0022538097
0.0025493617
0.0031284275
0.0020611254
0.0033527757
-0.0017732673
0.0023018362
0.0035672404
-0.0027793858
-0.0029106918
0.0039052851
-0.0032894409
0.002646894
-0.003534213
0.0028472447
0.00067403464
0.0021852336
0.002352204
0.0026650447
0.0027700064
-0.0025255922
0.0014307183
0.003472019
0.0037177792
0.0026808411
-0.0036247016
0.0023242526
0.0025356628
0.0024794466
0.0032921648
0.00117416
0.002901077
0.003012376
0.003312268
-0.0010901528
0.0026849993
-0.0038197974
0.0027520133
0.0022774232
-0.002940243
0.003031635
0.002756387
-0.002585022
0.0028104284
0.0027077005
0.0010353852
2.5619604e-05
0.0023888913
0.0020352378
0.0029114706
0.002704145
-0.0026152534
0.0032177682
2.8687718e-05
0.0032322083
0.0034097752
0.0025966046
0.0023823343
0.002739278
0.0033662308
0.0026253394
-0.0032174967
0.002515736
-0.0018247985
0.0023464938
0.0024066002
-0.0033171787
-0.003019106
0.003419409
-0.0034581083
0.004323748
0.0024619615
-0.0031511325
0.000684177
-0.0036332281
-0.0002608811
0.0026674645
-0.0030776497
-0.002669976
0.0022551462
0.002491175
-0.0032468522
0.0033332058
-0.0013888632
1.1488551e-05
0.002855586
0.0026695589
0.0025498907
0.0026291916
0.0038714546
0.0029118492
-0.003316861
-0.0017932086
-3.1828564e-05
0.0025169288
-0.0026623164
-0.0022799496
0.0033107316
-0.0025226132
-0.00277278
-0.0028894134
-0.0022287783
-0.003175626
0.0022610829
0.0030390997
0.0041987817
0.0024860823
5.5250945e-05
0.0017549127
-0.002596517
-0.0032188587
-0.002576724
0.003235061
0.0023524254
0.0028635578
0.0031989855
0.00226703
0.0037836456
0.0027969766
1.07826745e-05
0.0024185877
-0.003035039
0.0030164898
0.0027305365
-0.004423983
-0.0022782665
0.0025201123
-0.0027155061
0.0030539676
-0.002741348
-0.0019503498
0.0032717164
-0.003058701
-0.0024440235
0.002447246
0.0028583945
0.0023235576
0.0023686783
-0.0030338415
0.004091514
-0.0026829636
0.0029703593
0.002608847
-0.0025261703
0.0025488995
0.0030902524
0.0026455612
0.0027631356
0.0031321403
-0.0027983212
0.0030284417
-0.0018477354
0.0019756344
0.0033631609
0.002819866
-0.00318829
-0.00014911934
0.002993114
0.0026296463
0.0031826878
-0.0027232976
0.004123311
-0.002800481
0.0018286157
0.00275977
0.0034196423
-0.0025608924
-0.001944205
-0.002163431
0.002192432
-0.0029481829
-0.00044988055
0.0026877064
0.0027509218
-0.0029876712
0.0027515753
0.0025298512
0.0027605742
-0.00047164728
0.0029677942
-0.0028277806
0.002418024
-0.0029463174
0.0017387952
0.0030693063
-0.0031317347
8.9584e-05
0.0029828653
-0.0031362954
0.0032494888
0.0025123658
-0.0030429298
0.0022344529
0.0020087976
0.00087733776
-0.0021980372
-0.0031310902
0.002696167
-0.0023552543
0.0024971894
0.002454264
-0.0032958107
0.003060414
-0.0030900505
-0.0031953454
0.0027906406
0.0027493285
-0.0027582992
-0.0031421022
0.0027558338
-0.003247375
0.0022945025
0.0026656776
-0.002457843
0.002339005
-0.0021441954
0.002272468
-0.0027074076
-0.0044826935
0.0028101506
-0.0027075084
0.0044554053
0.003079777
0.0023209974
0.0026936324
-0.0031515786
-0.0030064157
-0.0035416367
-0.002327183
0.0027804638
0.00015910386
0.0033927353
0.0032033648
0.002629939
0.0037613478
-0.0026384469
-0.0026271008
-0.0026952333
0.0025938265
0.0029543282
0.0030607758
0.0031663624
-0.0021634279
0.003046265
0.003719528
-0.0029258896
0.0023798246
0.002661598
0.003152666
0.002802842
-0.0019756432
0.0025285715
0.0033023858
0.005945722
0.00028963995
0.0025082869
-0.0034362504
-0.002791209
0.0025929257
-0.002805465
0.003594563
-0.0025298
0.003676924
0.0021317783
0.0027667338
-0.0015085279
0.0029789899
0.002616916
-0.0030637365
0.003138284
0.0029385553
-0.0034857667
0.0023477036
0.0026864079
0.002772116
0.002420026
-0.0033985695
0.0033232595
0.0028542585
0.0029935353
0.002974075
0.0023679174
0.0020746859
-0.002500107
-0.0027027791
0.0024411306
0.0021997525
0.0029200313
-0.0025024302
0.0026214994
0.003742395
-0.0030517688
0.0030420364
0.0030607556
0.0024948926
0.0014431615
0.003161504
-0.0029545564
0.0028220445
-0.0026495492
-0.002807021
0.0023527017
0.0029327276
-0.0025927194
0.002985914
0.002439951
-0.0025788397
0.0030548905
0.0031649368
0.003182866
-0.0023736958
0.0027326383
0.0027475439
0.0020419187
-0.0020931473
-0.0025862248
0.002501206
4.790203e-05
-0.0021518746
-0.0016671413
0.0025331376
-0.0033876812
-0.0026628785
0.0034041295
0.0019791436
0.0027097797
0.0033459375
0.0038070604
0.0028728005
0.0030964885
0.0021314956
-0.0034813446
-0.0039163227
-0.0032951653
0.0030370955
0.0018244579
0.0024848455
-0.0051022856
0.002203054
0.0024464426
-0.003291345
0.0029575343
0.0028100119
-0.0029717707
-0.0034930545
0.0027295225
-0.0025113823
0.0029671132
-0.0027140542
0.0015713926
0.0031686982
-0.0024196014
0.0022441056
0.0032689986
0.002385535
0.002465516
0.002198341
-0.003025076
-0.0027931244
0.0005642722
-0.002521462
0.0013591243
0.002963941
0.00259289
0.0019974073
-0.0022514393
0.0028338337
-0.00303011
0.0025525836
0.0034594103
-0.0023620548
0.0026234137
-0.0022594652
0.003269942
0.0025644663
-0.0034955984
-0.003001153
0.0024636819
-0.0016703019
-0.0029531093
0.002978118
0.0028842087
0.0021874113
0.0026951146
-0.003659844
0.0031718838
0.0041506975
0.0029500045
-0.0030762432
0.0033765535
0.002769861
0.002217919
0.0029648228
-0.0026566787
0.0034069074
-0.0004941764
0.0030751692
0.0024213775
0.0029406433
0.0030240156
0.0031050462
0.0012762707
-0.0022336186
0.0030872466
-0.0023695447
0.0032466461
-0.0025364675
-0.0029276316
-0.002437794
0.002126552
-0.0040836004
-0.0029661774
-0.0020406449
0.0021290109
0.003224259
-0.0029285871
0.002408107
-0.0025243007
0.002575515
0.0035726286
0.0030793117
-0.0017117722
-0.0028137658
0.001590276
0.0027994122
0.0033295625
0.0028484704
0.0025639988
0.0028972058
0.0026783552
-0.003138856
0.0038193422
0.0026497887
0.0027062292
0.0028361178
1.5901624e-05
-0.00013794831
-0.003030542
0.0027045298
-0.0025462871
-0.002400478
0.0024562415
-0.002499139
0.0025237203
-0.003945148
0.002449346
-0.002935518
-0.0023647267
0.0027412022
-0.0031223865
0.0030908026
0.0026911297
-0.0027239833
-0.0030782518
0.0037439156
-0.000999583
-0.002321257
0.0027021675
0.0038638578
-0.0022284053
0.0027278794
0.00350917
0.0026432665
0.0028034206
0.0022592146
0.0030972038
0.0033864533
0.0032083322
0.0025119863
0.003186384
0.0032808047
0.0027632345
0.0025901033
-0.0029051492
0.0019529769
0.0034616692
0.0025978992
0.0034712672
0.0025242404
-0.002992035
-0.0027951717
0.003466596
0.0031346525
-0.0005341787
0.0032232986
0.0026950606
0.0028209276
0.0030689784
0.0023988283
0.0033207578
0.0019438847
0.002711695
-0.002098792
-0.0017034997
0.0037961395
-0.0027872224
0.0030592661
0.0028425416
0.0028044325
-0.0035777118
0.0029541827
-0.0023279078
0.0020198745
0.0023315481
0.0031972341
0.0023519844
0.0022159352
0.0002869971
-0.0019874475
-0.002460752
0.0028033834
-0.0027627698
0.002873666
0.0026881776
-0.00087148894
-0.0018804857
0.0017025387
0.000938965
0.0031234254
0.0017607729
0.00084367656
-0.0026970597
-0.0035432414
-0.00428479
0.0016856878
0.0029277008
0.0009709316
0.0025750985
-0.0018823631
0.0021600039
0.003172517
0.002663527
0.003496689
0.0003063839
0.0028958253
0.002983221
0.0027203825
-0.0033279245
-0.0010644638
0.0027849525
0.002428429
0.0014543202
0.0034304017
0.002441377
0.0034734267
0.0032625974
-0.0029807829
0.0023150365
0.001979903
0.0029008165
-0.0021967595
0.0026799785
0.0029373243
-0.0022433642
-0.0027065629
-0.0029373295
0.0022267085
-0.0029227422
0.0025911601
0.0032118717
0.002614988
0.0022919865
0.0024179367
0.0021393362
0.0037433933
0.002688856
-0.0024026826
0.002899202
-0.002312715
-0.0022370983
0.0023467757
-0.0027585225
0.004086062
0.0022643385
0.0025811086
-0.002687631
0.0024813616
-0.002450427
0.0031642753
-0.0030529927
0.0024667922
0.00076299015
-0.0024421571
0.0028837703
0.002332032
0.0029093318
0.002095096
0.0022602316
0.0029482555
0.0022581567
-0.0020161779
0.003638754
0.0023561043
-0.0030618845
0.0029478346
0.0029124392
-0.002520692
0.00224415
0.003002644
0.003951591
0.002184549
-0.002615506
-0.0028589645
0.0031018036
-0.0028126456
0.0034245206
0.0028743094
-0.00249794
-0.0021318293
0.0028326365
-0.003257843
-0.0024334644
0.0025236139
-0.0035705273
0.0029796353
0.002601903
-0.0025499456
-0.0030821492
0.0030830828
0.0024973585
-0.0027192428
0.0032149057
0.0021851095
0.0022383847
0.00245003
0.0028643527
0.0025372668
0.002861246
0.003040166
-0.0025966745
0.002758941
0.0035700663
0.0026193797
0.0038429522
0.0021068805
-0.0019616042
0.0030309826
0.003087498
0.0026914545
-0.0029000603
-0.0035886995
-0.0029111612
-0.0064174817
-0.002823574
-0.0035822534
-0.0021399655
0.003046499
0.0034454647
-0.0044102822
0.0026272987
0.0025256374
-0.0024084623
-0.0025884039
-0.0025525866
0.0032264497
1.4690671e-05
0.0038491879
-0.0028490613
0.0024869742
-0.0025397271
-0.0025461179
-0.003225501
-0.0031992365
0.0026022175
-0.0032471209
0.0040842863
0.0022567816
0.002758507
0.003084168
-0.0022477494
0.0023407133
-0.002463821
-0.0028541053
0.0029883713
0.0020099857
-0.0028618644
0.0028930677
-0.0033892812
-0.002845751
0.0033312219
-0.0025486369
0.0022890607
0.0025677397
0.0028978
-0.002925058
-0.0024019163
-0.0027677417
0.0025311755
0.0031362788
-0.0023654958
0.0027752947
-0.002762173
-0.0028755672
0.0023038932
0.0028493472
0.0030330988
-0.0028084451
0.0032874101
0.002586005
-0.002479037
0.0029310146
0.003029296
-0.0029144625
-0.002717691
0.0024648008
0.002870982
0.002477474
0.0027378248
0.0026142874
0.003405877
0.0026534847
0.0026595676
-0.002090757
0.0024465355
0.0028089203
-0.0024600476
0.0028289643
0.0022370452
0.0035028453
-0.003457771
0.003133688
-0.0023259202
0.0021524336
0.0024327163
0.0030953768
-0.0020988542
0.0045019775
0.0023268168
-0.002348626
0.0034283553
-0.0031688293
-0.0023721687
0.0026820337
-0.00286886
0.002924248
-0.0028633291
0.0022342843
-0.0009793751
-0.0021298456
0.0020024874
0.0025733933
-0.0032378484
0.0029757728
0.0005882803
0.001907233
-0.0028477982
0.0027627414
0.0031671117
0.0034391168
0.002468038
-0.0031745948
-0.0020269542
0.0027979622
-0.0026384736
0.0023942862
0.0032064614
-0.0038916937
0.0024981336
0.0031679338
0.00020096585
0.0031670153
0.0026574796
0.0041547273
0.0023995624
0.002479702
-0.004810482
0.0034617048
-0.0025152413
0.0025429747
0.0032045909
0.0026007073
-0.0023895723
0.0026234174
-0.0010618303
-0.003562549
0.002476704
-0.0025756464
0.00028925415
-0.003133156
0.0001290123
0.0025209943
0.0027862815
-0.003101941
0.002394213
-0.003074068
-0.0026612151
0.0028203703
0.00259233
0.0024825004
-0.0023611921
-0.002559095
0.0029174474
0.002805571
0.0023820407
0.0032692142
0.003574728
-0.0027985778
0.0051367288
-0.00017943881
-0.0032988545
0.002182579
0.00089863857
0.004313842
0.0024631487
-0.0022613474
0.002731208
0.0025724685
0.0039433683
0.003962061
-0.0026759924
0.0028756333
0.0029306582
-0.0036292903
0.0034270068
-0.002558954
0.0026192977
0.0030008056
0.002677223
0.0019664674
-0.0030633495
0.003680234
-0.0024149902
0.002553597
-1.45861595e-05
-0.003195007
-0.002579983
0.0029519617
0.0035984076
0.0034147084
-0.00313788
0.0027528591
-0.0019464665
-0.0022730276
-0.0039774454
0.0035163995
0.002273959
0.0030119165
-0.0033998303
-0.0029992256
0.0027509222
-0.0029873664
0.0036025494
0.003972592
0.0028680163
0.00028535555
-0.002614376
-0.0035310902
0.0018504364
0.0036197093
-0.0007833252
-0.002365395
-0.0029987015
0.0041711675
0.0026835706
0.0021072307
-0.0021598677
0.002786592
0.0033954964
0.0030036452
-0.0006777234
0.0034237264
0.0029872945
0.002084848
0.0030403817
-0.0027519925
0.003389508
0.0028538457
-0.0031030402
0.0025888893
-0.0025292323
-0.0024040411
0.0023622238
0.0029068366
0.0007495963
0.003553521
0.0032052472
0.0037924498
-0.0027731752
0.0020345915
0.003028228
0.0022767207
-0.0040157908
0.0036135023
0.0024625256
-0.0006644442
0.0032052428
-0.0028927086
-0.0027439648
0.0034643016
0.0028057545
-0.0029865294
0.0035855554
3.036515e-05
0.0025792653
-0.0025173961
0.0029393565
-0.0033754949
0.0012013091
0.0030710336
-0.0026904116
0.004429241
-0.0021816562
0.0036495174
-0.0028314881
0.0024610257
0.0025277303
-0.0008301075
0.00279922
-0.0020517714
0.003085065
0.002335844
-0.0013660792
-0.002937953
-0.0027273223
0.002470165
0.0023405696
0.00028440953
-0.002566272
0.0026529816
0.002477105
-0.002569263
0.0035311147
-0.0033144532
0.0031133501
0.002685596
-0.0020238587
-0.0027901449
-0.001370383
-0.002930931
0.0026986778
-0.0029782094
-0.0030467084
0.0025950738
0.003176508
0.0031163974
-0.0027374658
0.0031984814
0.0028256446
0.0027832768
0.0034801608
0.0035245284
0.0033253287
-0.0023706004
0.003734215
0.0027219031
0.0028022802
0.002609278
-0.002840644
0.0029958962
0.0011942931
-0.0024593924
-0.0020000888
-0.0020825348
-0.0032584385
0.0023668325
-0.0034187722
0.003051694
0.00208883
-0.0028807991
-0.0021666859
0.002704714
-0.0031805846
-0.0027103813
-0.0040086196
0.00298595
0.0037446423
0.0025737344
0.0031229237
0.0036296973
-0.0047412603
-0.0022229273
-0.003259804
0.0006564995
0.0025456275
0.002332047
-0.0029839715
0.0023606168
0.0024394577
0.002646149
0.002505326
0.0030950948
0.0042472947
0.0023103615
1.3891215e-05
0.0025474788
0.0026068438
0.0021799565
-0.0030862123
-0.0024429192
-0.0025426087
-0.0022644862
1.4862629e-05
0.003026927
0.003314153
-0.002697659
-0.0030077633
0.0020461576
-0.0019057033
0.0040146075
0.002763021
0.0022899285
0.0029383309
0.002805572
0.003455015
-0.0023128896
-0.0021846483
0.003489688
0.0024497637
0.0024974851
0.0023571283
-0.0027842293
-0.0026958352
-0.0024125788
-0.0031149192
-0.003867636
0.0028672332
-0.0026609516
-0.0005800883
-0.00281107
-0.00014752825
-0.003214848
-0.00034121098
-0.0025974673
-0.003049278
-0.0022371917
0.0025130622
-0.002739811
0.0033434376
0.0019303203
0.0038240703
0.003166441
0.0035466885
0.003244868
-0.0029294102
0.002857669
-0.002732529
-0.0040082987
0.0026367872
0.0025938894
0.0026805021
-0.0031930758
-0.0023268673
0.0030746032
-0.0025282772
-0.0016769485
0.002556484
0.002645776
0.0042686653
0.0030866552
0.0020223605
0.0015524514
0.0024777197
0.0029908284
-0.002379074
-0.0026695677
-0.003852682
-0.003105463
0.0027275223
0.0030645358
-0.0029701404
-0.0025920668
-0.003024732
0.0023770318
0.00297071
0.0031112707
-0.0016706706
-0.0022772413
-0.0025640444
-0.0037798777
0.0033936603
0.0026711926
-0.002164904
-0.0020977391
0.0030474826
-0.0029127602
-0.002417979
0.002626225
-0.0020280126
0.0023166793
0.0017250571
0.004321863
-0.0025951213
0.0029307615
-0.0031953792
0.0025563636
0.003070467
0.0023235884
0.0032344623
0.003360849
0.0025570756
0.003278044
-0.0024855055
0.0025127109
0.0026976094
-0.002775348
0.0026731528
0.0034455978
-0.00089892687
0.0024789972
0.002616699
0.0027332192
0.0032011252
-0.003407994
0.0026499555
0.0027780598
-0.0028346619
-0.0030325335
-0.0030819287
-0.0029666827
0.0031157152
-0.0033835256
0.0033868328
0.0028987732
0.003143191
0.003009819
-0.002858497
-0.0036844169
-0.0031641
-0.0028537624
0.003103222
0.0024367033
-0.0036603734
0.002684985
-0.0031284746
3.4847024e-05
0.002136552
0.0023572408
0.0046553863
0.0028105103
-0.0022827955
-0.00035855864
-0.003777047
0.0021245303
0.0028762592
-0.0030909986
0.0026197638
0.002477636
-0.0026120294
-0.002772085
-0.0030977905
-0.0029365027
0.0023872354
0.0030537131
0.002751015
-0.0030054362
-0.0022227326
-0.0025511289
0.0025768594
0.0028347317
0.0013611986
0.0031201195
-0.0027356206
0.0023452013
0.002222987
0.0012235988
0.0029882542
-0.0026012638
0.0002144721
0.0024716633
0.0032156399
-0.0026186476
0.0026449284
0.0022036945
0.0027526799
-0.0023097275
-0.0029170008
-0.0021805298
-0.0031577495
0.0031675466
-0.0038834242
0.0018496572
0.0034573646
0.0025187794
0.0024929778
0.0032759523
0.0006426135
0.002892648
0.0028081576
0.0025296304
-0.005158348
0.0011772551
0.0021158075
0.003085982
-0.0028387683
0.0012050465
0.0017709902
-0.002335925
-0.0030320587
0.0021445598
0.0027825153
-0.0036955366
-0.0026800076
-0.00359382
-0.0022156374
-0.0027526196
0.002834368
-0.0032769735
-0.0026526735
-0.002160328
0.0021658144
-0.001976907
-0.0029138334
0.0024282348
-0.0028987094
0.0028683606
-0.0031795648
0.0021708435
0.00247357
0.0024547472
0.0028961052
0.0035699566
0.002412921
-0.0023420365
0.004048415
0.0026494027
0.002440388
0.0031779404
0.0020612355
0.003865198
0.003267181
0.0021158152
0.0027048227
-0.0014326533
-0.0025953983
-6.1975516e-05
0.0024650597
0.0023668115
-0.0030181934
-0.0027105624
0.002810534
0.0028515158
0.00015739811
0.0031233302
0.0024309559
-0.0018143499
0.0034954571
-0.0032521395
-0.0031622339
4.3404366e-06
0.0012798951
0.0026873662
0.0031155006
0.0029499757
0.0020962737
0.0030137757
0.0033214781
-0.0026806076
0.0022923313
0.0019194365
0.0020706812
-0.0034064308
-0.0031994756
0.0031033258
-0.0030650075
-0.0030489059
-0.0025200031
0.0028654078
-0.0029043644
0.00017982835
0.002823525
-0.003120856
-0.0023372916
0.00255264
0.0025045064
0.0027114789
-0.0031149506
0.0031439883
-0.0027240196
0.0030823487
0.00279097
0.0025555363
0.0025015075
-0.0034256792
-0.001696407
0.0033047702
0.0030331167
0.0028427113
-0.0030253143
0.0026114122
0.0027125922
-0.0024779148
0.0023903637
0.0035810978
0.002818077
0.0027102593
0.0025695972
0.003423341
0.0024695557
-0.0030751168
-0.0001337069
-0.002486883
-0.0019186639
0.0026476008
0.001905976
0.0024757874
0.0020150247
-0.003171942
-0.0024721904
0.0022165189
0.0023810896
0.0031807225
-0.005297568
0.0040224525
0.0009704627
0.002489009
-0.0025521978
-0.0005927191
0.0033222053
-0.0023421568
0.0025803323
0.002545102
0.0020860669
0.0033330068
0.0023499052
-0.00308091
0.0024519362
0.0026980408
0.0031701734
0.0032140191
-0.0033248623
0.0027517353
-0.0022973688
0.0031365564
-0.0021823556
0.0025306584
-0.0024147024
0.0026227639
0.002521128
0.0026841832
-0.002358796
0.002791943
0.0024684537
0.0032197507
0.0027651181
0.002777236
0.003183442
0.002705132
-0.002310118
0.002293521
-0.0032275112
-0.0037055477
0.0032613687
-0.0027972746
-0.0028754065
-0.0023970776
0.0026352762
-0.0028869708
0.0027696225
0.00023220792
-0.003009956
0.0022205433
0.0033443496
0.0033913946
-0.0024412866
-0.0035494652
0.002320752
0.0021972272
-0.0026544174
0.002696069
0.0028033862
-0.002866057
-0.0024650095
0.0029864253
0.0029144739
0.0026692364
0.002465238
0.0033134622
0.002497057
0.002598656
0.003298656
-0.002129594
0.0025688985
0.0034387775
0.002758474
0.003684421
0.0024447935
0.002214453
0.0033967807
-0.0028932022
-0.0031950558
0.002815266
-0.0021856138
0.0021517586
-0.0021137667
0.0022915904
0.0027022841
-0.002702035
-0.0028045382
0.0030065835
-0.002715069
0.0035340884
-0.0027777792
0.003440076
0.0031380788
-0.0032632998
-0.0031478666
-0.0029023557
0.0027698546
0.0011336739
0.0041110474
0.0029293923
0.00028876553
-0.002486017
-0.0023638955
-0.00084232027
-0.0020651834
-0.0025122263
0.003483151
0.0021380263
0.002451067
-0.00084446697
0.0034853534
-0.0023250352
-0.0029454236
0.003023377
-0.0028249687
0.0030040345
0.0026126262
0.00089338893
0.003411298
0.0029927364
-0.002652975
0.0028385452
0.00561861
0.0025966717
0.0026544249
-0.0029322666
-0.0020895202
0.0026965789
0.0023503369
0.00058605
0.0036434801
0.0023805045
-0.0032618945
0.00295211
-0.0026865853
0.003146092
0.0023245206
0.0029109223
0.0028439055
0.0022203284
-0.002610136
0.002140223
0.0045411917
0.0029386089
0.003148883
0.0019082271
-0.0010651444
0.0023292995
0.0029286176
0.0022723968
-0.0031923633
-0.0030973228
-0.002583052
0.0029264032
0.003076513
-0.0021041865
4.24591e-06
0.002613851
-0.0033042561
-0.0029583876
0.0022522279
0.002332526
0.003365718
-0.0022964806
0.002530189
0.0029705346
0.002587553
0.0021374281
0.0035505283
-0.003174004
0.002228531
0.0027960716
0.0028999527
0.0021924374
0.0032110296
-0.0021690347
-0.00068814424
0.0022975437
-0.002458406
-0.002687446
0.0023925558
0.0012732925
-0.0022624233
0.0026567348
0.0032236183
0.0029616219
0.0038294261
-0.0022328903
0.0029870514
-0.0026563215
0.0028697662
0.0033949038
-0.0026904466
-0.002525105
0.002317857
-0.0033599217
0.0025729076
0.003404183
-0.0028298574
-0.003108304
-0.002715536
0.0025584411
0.002638168
0.0030664825
-0.003160797
-0.0038383168
0.0033511922
0.0021920344
-0.0027507902
-0.0026795375
0.0031736314
0.0029404142
0.0034152004
0.0031812242
0.0036580928
-0.003062527
-0.002878647
-0.003160224
-0.0032864548
0.0031049743
-0.002521155
-0.002589185
0.0027062627
0.0023460817
-0.0027115725
0.0027586094
0.00076632475
0.0029863936
-0.0024565673
-0.0028372405
-0.0024601617
-0.0019924124
0.0030668508
0.0016342822
-0.0028318893
-0.0031656043
0.002705418
0.002845752
-0.0022408287
0.0018595661
-0.0031509637
0.0029715037
-0.0028791158
0.003809279
0.0036863436
-0.0026886738
0.0026315234
-0.0023173988
0.003648074
-0.0019318674
0.002183559
0.0043666344
-3.253641e-05
0.0028825328
0.002309385
-0.0025093877
-0.002641057
0.0028157507
0.0036247727
0.00216533
0.0028310067
0.0024344616
-0.002549959
0.0032135388
0.0026588186
0.0034296769
0.0023048746
-0.0027474104
-0.0028201265
0.00225215
0.0021942114
-0.0029028663
0.0028465437
0.0021180469
0.002896796
0.0042497697
0.0033920768
0.0025926654
0.003390707
-0.00297488
0.003214276
0.002713999
-0.0032254115
-0.0034797671
-0.0022884747
-0.0031601747
0.0025596868
0.002307291
0.002780654
-0.0022655001
0.0026407093
0.0019410677
0.0020927908
0.0032389134
0.002656037
-0.0033028398
0.0029826467
-0.002764009
-0.0039645485
0.0029314526
-0.0027066693
0.0028420775
-0.0025646812
-0.00277693
-0.0027113052
0.0037007502
0.002637647
-0.0026832614
0.003603134
-0.0031685603
0.0024568622
-0.0023200272
-0.002222591
-0.002776999
0.0030929777
0.0022390075
0.002738477
0.0029267895
0.0022601886
0.002530261
-0.0033589124
0.002398676
0.0030165338
0.0026725794
-0.0028901326
-0.0028335287
0.0022491878
0.0033027045
0.0023157734
0.002876168
0.0023399142
0.00028236568
0.0025156096
-0.0018870293
-0.00284191
0.0029188956
0.0021641953
0.0025896663
0.002395255
-0.0034115252
-7.520692e-06
0.0034770123
0.0023373177
0.003395678
0.003275865
-0.0031979936
0.003107898
0.0025088033
-0.0032940728
0.002381659
0.0031233989
0.0026703342
0.0025069823
0.002087735
-0.003408366
0.0034696239
0.0035140996
-0.0037284058
-0.0007805446
-0.0028431835
0.00403623
0.0023839124
0.0026690338
-0.0031286823
-0.0032195803
0.002678451
0.0036270595
-0.0021964752
0.0011795631
-0.0025455116
-0.003222558
0.0021992757
-0.0016233288
0.002522706
0.0023592487
0.0023649924
-0.0032518134
0.0028854774
0.0031548182
-0.0029692326
0.0026030545
0.0022068045
0.0030307563
0.0029283478
-0.002281692
0.003304322
0.0019018756
0.00318071
0.0023066695
0.0026940077
-0.002527617
-0.0025724063
0.00016686138
-0.0024685254
0.0025535792
0.0018806157
0.0028946975
0.003050396
0.0015548255
-0.0036711106
0.0030159906
0.0030223527
-0.002791952
-0.002426217
-0.0032114966
0.0025568835
0.003059004
0.00319391
0.0022522653
-0.003063293
0.0025523254
-0.0041942303
0.0020493409
-0.0024127073
-0.0028357366
0.0019993628
0.0027091724
-0.0022984876
0.002306787
0.0022446192
0.002536799
0.0022477019
0.002845017
0.0026402967
-0.0023869164
-0.0030756053
0.0033217496
0.0023905402
0.0030352746
0.003265365
-0.0021760403
0.0024633864
0.003210057
-0.0029425945
-0.0022255569
0.0021068049
-0.00353387
-0.0020260357
0.002779069
0.002179756
-0.0027419361
0.0031548499
0.002650088
-0.0026539022
0.00036132062
0.0026708469
0.003034854
-0.0007997174
0.0034927945
-0.0028157153
0.0009398864
-0.003613831
0.002967236
-0.003130272
0.002805955
0.0025371334
-0.003995649
-0.0042351703
-0.0028540608
0.002587819
0.0028219789
0.002387589
0.0025685544
0.00384584
0.0029034764
0.0027525139
0.0028509013
0.006659916
0.0024330493
0.0033281494
0.0026185382
0.0012853335
-0.002372138
0.0026863813
-0.0026873439
0.0029479647
0.0024643021
0.00289995
0.0033809594
0.0037275986
-0.0029421852
0.002456694
0.0029296642
-0.0028376495
-0.0022163994
0.0023957426
0.002435415
0.00279945
-1.0078519e-05
-0.0014373203
-0.0020749108
-0.0031940555
-0.0026312391
-0.0030175997
-0.0027180086
0.0028839349
0.0028036023
0.002020119
0.0030961353
0.002944707
-0.0031388374
-0.0022211582
0.0015008945
-0.0033591504
0.0024100596
0.0027374104
0.0026029549
0.0018978695
0.002479658
-0.0023154707
0.0022420317
0.0015239068
0.0020018788
-0.0031956853
0.0020712137
-0.002387792
0.003488202
0.0026040166
0.0027762048
0.003371564
1.8911577e-06
0.0012471545
0.00270172
0.0024984258
-0.0028576413
0.0017891555
-0.003731134
0.0021235736
0.0022687432
0.001789717
-0.003383165
0.0028478848
0.002565042
0.003662163
0.0039080437
-0.003292562
0.002653662
-0.0024928616
0.0027611156
0.003117173
0.0026676925
0.0022758713
-0.0025629657
-0.002875478
-0.0022971
3.3197437e-05
0.002221465
0.003257065
-0.0028293177
0.0029901357
0.0023924466
-0.0022793636
0.0024079613
0.00016714982
0.0025309345
0.0038143888
-0.0034106858
0.0023020818
-0.0029018759
0.0023596694
0.0016985326
0.002700932
0.003588888
0.0017003192
-0.0026566323
0.0027969135
0.0035918802
0.0023850563
-0.0026146665
0.0021756198
-0.0025137803
0.00073485466
0.0021719034
-0.0026636098
-0.003338626
-0.0029344417
0.0033554144
0.0024080586
0.0028704677
-0.0029709032
0.0026446278
0.0024301151
0.002890949
0.00301596
-0.0032777556
-0.0020105967
0.002322845
-0.000961276
0.001980187
0.0020165055
0.0029416205
-0.0022553476
0.0034503164
0.0022674033
0.0020702858
-0.0028885184
-0.002685878
0.0012928083
-0.0030285178
-0.0025663169
0.0022943062
0.0027478263
-0.0027132467
-2.6160771e-05
0.002258133
-5.7508154e-05
-0.0033551008
-0.0030342005
-0.0030326217
0.0041958117
0.002352329
-0.0039986614
0.0026466856
-0.002122004
0.0039330604
0.002581041
-0.0034417403
-0.0027404234
0.0045210836
0.0028247673
-0.0024513307
0.0028246024
0.0020819253
0.0023745638
0.0043091816
0.00267362
-0.0024726503
-0.0027008574
-0.004126832
-9.76617e-05
0.0021757102
0.001978043
0.0012441336
-0.0030538607
-0.0034865213
0.00400697
0.0024447553
0.003327603
0.0030569958
0.002262528
0.0032925294
0.0025109297
0.0025760431
-0.0029127318
-0.0028618854
0.0026981335
-0.0023259877
-0.0021493034
0.0030242598
0.002681803
0.003179305
-0.0023397927
0.003112607
-0.0022555965
0.00218089
0.002465206
0.0031924811
0.0024648488
-0.00281194
0.0021841645
0.0034351938
-0.0031962818
-0.0030385428
0.0032370081
-0.002670753
0.0050989892
0.0033469375
0.0033695544
0.0037535974
0.0021092575
0.002403758
-0.003476407
-0.0026758334
0.0029211603
0.0022447656
0.0023744875
0.0022747528
-0.002428208
0.0035025454
0.003935741
0.0029441174
-0.0031066933
-0.0031342208
0.002078544
0.0023011253
0.0028217207
0.001917041
0.003007017
0.002285505
0.0026711784
-0.0028478524
-0.0027621363
-0.0027135978
0.003068352
0.002901724
-0.0023371864
0.0047645504
-0.0026494137
0.0030250074
0.0023535378
-0.002777577
-0.0022206742
0.0031171544
-0.0011240798
0.0024870192
0.0023588706
0.002914443
-0.0037321814
-0.00016987573
0.0024569987
-0.0028289205
-0.0022504537
0.0023725454
-0.003751648
-0.002994698
0.0026778367
0.0025376636
0.002704623
0.002498927
0.003341178
0.0026739687
0.0029629094
0.0026184788
0.0025846218
-0.000478186
0.0026214477
-0.002692008
0.0028762138
0.0038772456
0.002921341
0.0024510927
0.0026370487
-0.0033578917
0.0034680052
0.002676872
-0.0031607053
0.0021881578
-0.002618653
0.002355729
-0.003478161
-0.0019678841
0.0024687909
0.0025782804
0.0033671658
-0.0026328468
-0.0025768692
0.0004650625
0.0028226066
-0.0025793693
0.0027282147
-0.00044936867
-0.002610862
0.0024194773
0.00024038249
-0.0033870493
0.002716822
0.0024572539
0.002962886
0.0024910348
0.0028360097
0.0029038182
-0.0031745255
-0.0016790648
0.0022577352
0.0029577834
0.0027184018
-0.0035540739
0.0001506578
-0.0030086285
-0.0029920505
0.002106539
0.000636685
0.0023921186
0.0026909509
-0.0033097528
0.00026257336
0.0025827244
0.0029031348
0.0024233193
-0.002429747
-0.0032890174
0.0025884802
0.0027094907
0.002193181
0.002600312
0.003404803
0.0025647895
0.0028691513
0.0035964216
0.003027817
0.0026029218
0.0023267497
-0.0026444383
-0.0032777702
-0.002380818
0.0026120262
-0.0002953214
-0.002963425
-0.0023112055
0.002802951
0.0026208775
0.003093211
-0.0029102685
0.0032316023
-0.0030534791
-0.0025646708
0.002930509
0.0028101187
0.0028653557
0.002252548
0.0029031665
0.00224848
0.0029680515
-8.0196e-06
0.0028233086
0.0025060454
0.0027013884
0.002700067
0.0027669834
0.003517535
0.0028721378
-0.0029905017
0.0020068428
0.0021258274
0.0028387725
-0.0033500986
-0.0028614118
-0.0015097714
0.0034400783
-0.0020607421
0.0022724287
0.0029332503
0.0028320423
0.0030820349
-0.0013540154
0.002612837
0.002624674
0.003941463
0.0036191235
0.0030003346
0.003905963
0.0028464543
0.002621825
0.0029905254
0.0022442983
0.0031635219
0.0019999945
-0.0002628656
0.0005072375
0.002453821
0.0029690566
0.0028500399
-0.0031903426
1.7333728e-06
-0.0020734083
-0.0035721585
0.0027508058
-0.0028636958
0.002968953
0.0026297655
-0.0030272827
0.0031214969
0.0027647177
0.0028492862
0.0025756531
0.0036935662
0.002666038
0.0025088505
0.0029371337
0.0028307575
0.0025782262
-0.0034010976
0.0042381287
0.0026667747
0.0006525147
0.0024707308
0.003034524
0.003228693
0.0025454366
-0.002939299
0.0030832745
0.0016891842
0.0032111001
-0.0023997545
0.0023613935
-0.0037605322
0.0027557847
-0.0031260361
0.0027190289
0.0025779037
0.0029570924
0.0021099194
-0.0029207084
-0.0026620144
0.003007395
0.0026472746
0.003320752
-0.00088582566
0.0029252602
0.00090161426
-0.0028850522
0.0026635164
0.0029880095
0.003259828
-0.0033284242
-0.0022662238
0.0024477402
0.002640031
0.0023001905
0.0027276357
0.004036646
0.0029272572
-0.0026301788
0.0024101215
-0.0031345175
0.0029977574
-0.0028064651
0.0030315204
0.0023308808
0.0031684346
0.0035995324
0.0030405526
-0.0030212863
0.0025324125
0.0029080797
0.0033989507
0.0022332445
0.003012104
0.002912451
0.0026394422
0.0030454563
-0.003153466
0.0024390516
0.002448588
-0.0027461753
-0.0029483787
0.0026025476
0.003781576
0.0021656943
-0.003242854
-0.00359515
0.0040492085
0.0030717254
-0.0038235176
0.0020355245
0.0033102625
0.0020523746
-0.0025732792
0.0030368874
-0.0027280825
-0.0025304912
-0.0027321947
-0.0023207802
0.0041900505
0.002251397
0.0031810459
0.0027683077
0.003041061
0.002344693
-0.0022346505
-0.0028300479
2.7101321e-05
0.003106995
-0.0035195716
0.0031667156
-0.002253023
0.0025180178
-0.0025465724
-0.0020356246
-0.0017565439
0.0023489047
0.0024373336
-0.0022686098
-0.003600237
-0.0022951118
-0.0022746646
0.0030618466
0.0024866394
0.0028857247
0.003506952
0.0026602505
0.0030759515
0.002492841
2.6611779e-05
0.0032115951
0.0036242213
0.0028289966
0.0031771746
0.002572595
-0.0026159044
-0.0030869571
0.002679153
0.0027162284
0.0023814081
0.0027456747
-0.0032136254
0.0031616874
0.0031204843
0.0016328411
0.0027997426
0.0029001276
0.0030883267
0.004658838
0.0032239282
0.0024134524
-0.0025082931
0.0022103968
-0.0032988875
1.0176496e-05
0.0039695357
0.003346429
-0.0036312763
-0.0030316128
-0.0031265062
0.0025510064
-0.0022886698
0.0022721968
-0.0021626258
0.0030116157
0.002921814
0.0027023996
0.0028673594
0.002281271
0.0019503117
-0.0030489345
0.0030538456
0.003076252
0.0035477884
-0.002433073
-0.0031795725
0.0028463332
-0.0038582168
-0.0025406731
-0.0016087545
0.0016665006
0.003074467
-0.0028450734
-0.0030979663
0.002699917
0.0027993028
0.003693354
0.0026989388
-0.002392805
0.0032635692
-0.0031856047
-0.0028576825
-0.0025126887
0.0027702062
0.0025342985
-0.002759024
0.0030510358
-0.0028178387
-0.0021564064
-0.0024169853
0.0027035822
-0.0018384509
-0.0029642847
0.0025628572
-0.0026134665
0.0035021415
0.003142948
-0.0032144673
-0.0030907562
-0.0013949166
-0.0031088572
0.0029657555
0.0034028993
0.002725116
0.0031397769
-0.0023814044
-0.003153318
0.002027682
0.0028027103
0.0026205601
0.002948625
0.003076393
0.0030368047
0.0035025496
0.0031673184
-0.00248597
0.0022133526
-0.0026327663
-0.0037171645
0.0027387782
-0.0024309275
0.0042140842
0.0029841657
-0.003499456
-0.0033961749
-0.002863181
0.0030585271
0.0027350169
0.0029202064
1.767832e-05
0.0023160975
0.0031980448
0.0032877957
0.0036348903
0.0029700038
0.0028318602
0.002853032
-0.0023627365
0.002419937
0.002658006
0.0034132726
0.0030934184
-0.0011749084
0.002803249
0.002624042
-0.0032458978
0.0014841578
0.0027517215
0.0005149031
0.00257409
0.0021639862
0.0022740436
0.003201513
0.0025824844
0.002522458
5.322819e-05
0.0023668928
0.0003191215
0.0021180878
-0.0025555368
0.0029246428
0.0034717757
0.0033109807
-0.0024656416
0.0023528603
0.00227807
0.0022096192
-0.0026532842
0.0031171592
0.0027771567
-0.0035327596
-0.001148855
0.0016413241
0.0037453137
0.0022989488
-0.0032652428
-0.00023690522
0.0029826206
-0.0024858841
0.0035380127
0.0029798658
-0.0027287088
0.0032346812
-0.002599153
-0.0031849865
0.0029169025
0.00043689707
-0.0033708054
0.0039525316
-0.0010525271
-0.0038449515
0.0035954174
-0.003324742
0.0043908088
0.0026509156
-0.0025876847
0.0028857018
0.0025648605
0.002937753
0.0032203246
0.0023866694
0.0024243845
0.002496963
0.0030102078
0.002902604
-0.0021526604
4.4716303e-06
0.0026430865
-0.0024886867
-0.0032125427
0.0028301117
0.0026453082
0.002714859
-0.0039718356
-0.003366693
-0.0025454496
0.0034686888
0.0019748132
0.002436017
0.0027547902
-0.0027637214
0.0030391652
-0.0028756144
0.0034634657
0.002937684
0.0024235512
0.0017443061
0.0041283416
0.002447989
0.0028529088
0.0029435286
-0.00048657355
0.003061993
0.004015346
0.0032110808
-0.003431414
0.0043844627
0.002400441
0.002762479
0.0023149445
0.0036705295
0.0032334458
-0.002395677
0.003480384
-0.002182149
-0.0028343198
0.00025728007
0.0024293878
0.002345529
-0.0027219784
-0.0028108854
0.0033737852
0.0032039972
0.0033257725
0.0011664648
0.0027911668
0.0031946867
0.0003102901
0.002370425
-0.00281472
-0.0029696517
-0.0002669226
0.0030271758
-0.0033615238
0.002722379
-0.00080967887
-0.0028685983
0.0026250626
0.0029408883
0.0025767398
-0.0029007522
0.0026269609
0.0017668117
0.002703305
-0.0028928476
-0.002591816
0.002669401
3.928301e-05
0.0005707323
-0.0034705389
0.0028386451
0.0015460785
0.003888419
-0.0017364202
0.0031265921
0.0037747964
-0.003128864
0.0027198605
0.0020259453
-0.0010588802
-0.002760358
-0.0036634814
0.003073906
0.0036237724
0.0024636893
-0.0033669076
-0.0033292845
0.0028591552
-0.0028662183
-0.0032375096
-8.793976e-05
0.0028647084
0.0032686302
0.0026362538
-0.003815345
0.0032850814
0.002408714
-0.0021235945
-0.00263474
0.0032779076
0.0029072317
0.0026574114
-0.003175795
-0.0035475052
0.0036702554
0.0029647592
0.0012480693
-0.003045732
0.0025947439
0.0009847762
-0.0031275055
-0.0005794961
0.0027221346
-0.0033289082
0.0027808924
-0.003051799
0.0026399945
-0.0025705094
0.0022440949
0.004561838
0.002094456
0.0034862463
-0.0027579397
0.0020636772
0.0028162221
-0.0026553434
-0.0034195
-0.0041879667
-0.0027895933
0.0016658867
0.0019705666
0.002844438
0.00038848078
0.0032699278
0.002632628
0.0031282455
-0.0027117769
0.0019464011
0.0040481836
-0.00011529142
0.0027084535
-0.002111248
0.0022441254
-0.0029755903
-0.002693926
0.0019347807
0.0023308662
0.003793326
0.0017400719
0.0014623462
0.0014335919
0.00328808
-0.0029744112
-0.0031123424
0.0031487625
0.0026064187
-0.0028544446
-0.0034965822
-0.0025705413
-0.0025000954
0.0025142487
0.002484847
-0.0023425226
0.003362439
0.0030005563
-0.002959033
-0.0029179018
-0.0030022974
0.0029606877
-0.003517951
0.0030328275
-0.002944215
5.9970175e-06
3.688172e-06
0.003140403
0.0029394585
0.0028696046
0.0035270408
-0.00094293273
0.002549707
-0.0026433992
-0.0025743393
0.0021702456
0.0034020368
-0.0029663702
0.0023601777
0.0032262886
2.1037733e-05
0.00045071435
0.0027549267
-0.002824134
-0.0034049419
0.0025657243
0.0032456801
0.0040510762
6.093225e-05
0.0026335693
0.0026914107
0.0031830694
-0.002497848
-0.001995217
0.0025091541
-0.0023502714
0.0044680936
0.0023396078
0.0010815688
0.0027812321
-0.0028031715
0.0028502035
0.0028758598
-0.0024751339
0.0028254765
0.0025545433
-0.0030717948
0.0020925065
-0.0024202215
0.0023682062
-0.0030956604
-0.002788259
0.003063938
0.0020108859
0.0024432212
-0.0024471467
0.0027117433
-0.002304699
-0.0031697564
0.0031303891
-0.0015853246
0.0024855682
0.00311285
-0.002179644
-0.0025385427
0.0019776965
0.003270159
0.002904218
0.0025093877
0.0028683962
-0.0029735148
0.0025384852
0.0027526827
-0.0026327034
0.00041530913
0.002590981
0.0033004668
-0.0031061296
0.0034916431
0.0025967336
0.0030110332
0.0030798533
0.0028409208
0.0025284356
0.0030358233
0.0030262568
1.3938051e-06
-0.0036654386
-0.0032813328
0.0032888828
0.0030695957
-0.0029026996
0.0026546414
-0.0030088287
-0.0034385545
-0.003932582
0.00296498
-0.002973418
0.0029034414
0.0026450106
-0.002090645
0.0029058463
-0.0024981755
0.0027839371
0.0026483159
-0.0026462711
0.0013653833
-0.002657276
0.0033435673
0.0027897318
-0.0019153852
-0.0035267225
0.0019164853
-0.0025847992
0.00045379822
0.0007667653
0.0027621998
-0.004884872
0.0035096526
0.002930977
0.0010835462
-0.0032689243
0.0024133096
0.002796839
0.0036220048
0.0026367295
0.0021895338
0.0023907945
0.004358574
-0.0028916292
0.0027228005
0.0037042368
0.0023212133
-0.0030392138
-0.002534377
0.003016626
0.0028227554
0.0025915464
0.0021230194
0.0034574785
0.0026049698
-0.0032503814
0.0038756588
0.003210019
-0.0027286985
0.0014140335
0.0020779727
0.0020708898
0.0030770123
0.0026862877
0.0030417158
0.002595493
0.0022463226
-0.0025913615
0.0023926408
0.0007994038
-0.00311484
0.0027656471
0.005191757
0.0040757214
-0.001962725
-0.0029347064
0.002421684
0.0022906049
-0.00237567
-0.000109632965
-0.0024796212
0.0021461677
0.0030696418
-0.0029470322
0.0032811032
0.0019040763
0.002512722
-0.003726831
0.0038041482
-0.0028894644
0.0024850077
-0.0025612528
-0.0047996077
-0.0027074239
0.0026982161
0.0025152918
-0.002401845
-0.0034007882
0.0022064205
0.002205329
0.002842586
-0.003571931
0.002816093
0.003088599
-0.0040554563
-0.0024848913
0.003057042
-0.0027787907
-0.0025623299
0.0029271897
0.0037914894
0.0025470003
-0.0017370951
0.0030745566
-0.0025798618
-0.0030294782
0.00034664726
0.0034642932
0.0033036442
0.0028714733
-0.0034917218
-0.002317948
-0.002947858
-0.0026833764
-0.0026473422
-0.003634597
0.0024941082
0.0028999748
0.00018096564
0.0027382544
0.0032824054
0.0028602113
-0.0024439385
0.0029313513
-0.0010150812
-0.0026725838
-0.0023460018
-0.0021080167
0.003242327
-0.0020190226
-0.0023181306
0.00049762084
-0.0037810456
0.002838948
-0.0037059875
-0.0031675466
-0.0022233631
0.0028194345
0.002125383
0.0027707794
0.003023249
-0.0029988557
-0.0039236126
0.0035010255
0.0041048685
-0.0023378455
0.0022844246
0.0027879754
0.0022251562
0.003451652
-0.0026074154
-0.0031287668
-0.0026087486
0.0033845967
0.0025172269
0.0037882274
0.0024805109
0.00021433058
-0.0023104337
-0.004248581
0.0029468932
-0.0025539228
-0.0015801605
-0.0023914047
-0.0034232698
0.0029878397
0.002819481
0.0034465408
-0.002734448
-0.0024609775
-0.0021668433
-0.0020782321
-0.0028244208
-0.0026052506
0.0029567315
0.001734439
0.0022799391
-0.002661568
-0.0032099693
-0.0027888224
-7.053516e-05
-0.002429878
-0.0033516812
0.003260468
0.0024620472
-0.0026504064
0.0029456373
-0.0028373594
0.003250861
-0.003175763
0.0020850508
-0.0035363801
0.0029240872
0.00335358
-0.0025119383
-0.0024506834
0.0002878495
0.0035887384
0.002937937
-0.0022772606
0.0022882982
-0.0029965136
0.0036083504
-0.0034478686
0.0029382673
-0.0024133096
0.0016431944
-0.0029646577
0.002459753
-0.002752521
2.7076108e-05
0.002863119
0.0026636154
0.00353835
-0.0031778123
-0.003072304
-0.0030322997
-0.0027392695
0.0029136215
0.002125363
0.0025019757
0.0024688195
-0.0032668498
-0.0035351582
0.0028319694
0.0029405684
0.003653008
0.0022412254
-0.00012684976
-0.0034793045
0.003255337
-0.002292292
0.0021851256
-0.0027878617
0.0029455372
8.24937e-05
0.0035874848
-0.0029352834
0.0025265438
0.00028748967
-0.0031164538
0.0030461596
0.0027429091
0.003288572
-0.0003724618
0.0027069869
0.003968807
0.0028329804
0.0025920654
-0.002610486
0.0034243248
-0.002907407
0.0025221242
0.0022566644
0.0036617434
-0.0028155812
0.003659216
-0.002194668
0.0024682635
0.0031241935
0.0026629248
0.0027913311
0.000838573
-0.0030546791
0.002740989
0.0023198961
0.0034919071
0.0018496959
-0.0018852341
0.0023552913
-0.0036747518
0.0022627825
0.0043745553
-0.002241479
-0.0024853866
0.0020367736
0.002568174
-0.0029091644
-0.0040839086
-0.002617507
0.0034675407
-0.0022712327
-0.0027938804
-0.003000688
0.0031984923
0.0022628147
-0.0027844973
-0.0012069567
0.002492435
-0.0011797579
0.0029886272
0.002985787
-0.00217973
-0.0026437892
-0.002749343
0.003672355
0.002539513
-0.003247013
0.0024331328
0.0026829522
0.0030703875
-0.0021707113
0.0028230294
-0.003013962
0.0025140706
0.00044299557
-0.0024501688
0.002954702
0.0027127091
0.004243255
0.0027103808
-0.0030829064
0.002720539
0.0029334975
0.0013815596
-0.0025311306
-0.0031743648
0.002745431
0.003163976
-0.00428199
0.003260862
-0.003214432
0.0027385151
0.0022589928
-0.0019027116
0.0034485473
-0.0031262904
5.2065784e-06
0.0026691118
0.0036166958
-0.0035717569
0.002366782
0.0031395415
0.0019386995
-0.0025202262
0.0028869375
0.002171877
0.002607242
0.0026999624
0.0026151186
0.0025459633
0.0027460053
0.0034976392
-0.00092512346
0.0025832842
0.0032783616
0.0031719478
0.0026741382
0.0020488338
-0.0029246153
0.0021797076
0.0025960226
-0.0022337814
0.002437381
-0.00247722
0.002241979
-0.0030639558
0.0022710268
-0.00031416613
0.0022459105
0.002785365
0.003670773
0.0033313027
0.0031779744
0.0027926378
0.0016399266
0.0029985763
0.0024001691
-0.0029298787
-2.9122959e-05
0.0028971229
-0.0020768773
4.62797e-05
0.0031677538
0.003159215
0.0024640032
0.0026775165
0.001613464
0.0029264705
-0.0032380885
-0.0032819505
-0.0027732612
-0.0027421766
0.0026324599
0.002608872
0.0024397362
0.0030266335
0.0012579097
-0.0022268994
-0.0020938625
0.0031509616
0.0021882528
0.0029559417
-0.0028090477
-0.0025473866
-0.0032165353
0.0023240044
-0.0026850374
0.0028766338
0.003540673
0.00017246092
0.0029833696
0.0027011267
0.0027828189
0.004005559
-0.0021348784
0.003576324
-0.0031709753
-0.003363897
0.0029821761
0.0033986755
0.0024064996
-0.0031414973
0.0020444177
-0.001975948
0.0022534104
0.0023435438
0.003045117
-0.0033309
-0.0028016171
0.0023942534
0.002590256
-0.00024328995
0.0025948726
0.0020403943
0.002653656
0.0027245053
0.004409667
0.0035515751
0.0025624903
-0.0025177195
-0.0018947007
0.00012063915
-0.0031232762
0.003780573
0.0029330766
0.0036802087
0.0026172262
-0.0033359786
0.0025864376
0.0024803902
-3.634692e-05
0.0022812013
0.0026483499
-0.003942984
-0.0022997349
0.002810558
-0.002277903
0.0029344817
-0.0028639256
0.0022752373
0.0023038413
-0.0022547503
0.0026709163
0.002555189
-0.00248561
0.0022307697
-0.004124598
0.0024537877
-0.0021719064
0.0030593306
-0.0030590184
-0.0029174676
0.0023439033
-0.0024348309
-0.0020632027
0.002751891
0.0020943757
0.0025325946
-0.0028743483
0.00277896
-0.0028686512
0.002754718
0.002655173
0.0031069468
0.0023259283
0.0020044928
-0.0027596038
0.0023836906
-0.0023572252
-0.0025930249
-0.00233264
-0.0032334973
0.0035336318
0.002377252
0.0024725508
-0.0028088423
0.00023300678
0.001215975
0.0028137437
-0.0030716853
-0.0031663398
0.0021601317
0.003035742
-0.0012077925
0.003271014
0.0029237443
0.0042287423
0.0023931963
-0.0029582889
-0.0020794913
-0.0029206374
0.00026115886
-0.0030704078
0.002735767
-0.003282416
0.0027884278
-0.0032792129
-0.0028051466
0.0026579374
0.0025490664
0.0028302183
0.0029173698
0.0028419257
0.0024937834
0.0036424608
0.0028077064
0.0026586868
0.0024450065
-0.002903193
-0.0035339794
0.0027615966
0.0026840924
-0.00026579603
0.0028027869
-0.0026129165
0.0024888634
0.002765885
0.0021692507
0.0027530328
0.0027383359
0.0032478892
0.0021840273
0.0029205573
-0.0028467325
0.0028927827
-0.0039879316
0.0025271678
0.0029826597
0.0030083992
-0.0021952747
0.0022693437
0.002742767
0.0030819727
-0.0022151626
0.003155216
0.0027021882
0.0021847945
0.002501607
0.0016994375
-0.0032934053
0.0027720686
-0.0032114917
0.0023332166
0.0036091786
-0.0027321868
0.002806051
0.0029042908
0.0017494175
-0.0025988696
-0.0024671266
-0.001997229
0.0029614905
0.0025220162
0.0032736408
-0.0027774603
-0.002520003
0.0025423805
-0.0026888668
0.00379744
0.002540734
0.0022730774
0.0031278657
0.0026635511
0.0024131238
-0.0028915396
-0.0028300576
0.0020522485
0.0021083285
0.0034711566
0.002640476
-0.0027583425
0.0026301318
-0.0024304115
-0.0029902586
0.0031994602
0.0030250123
0.002446896
0.0024515635
0.0024352756
0.0032982996
-0.0021474026
-0.0031553418
0.002606655
0.0031202775
-0.0024826953
0.0041392515
-0.0028217768
0.0032972794
0.003576639
0.0030879143
0.00259898
-0.0024144603
0.0024183625
0.0025338223
0.003199183
0.0034441717
-0.0029369947
-0.0033328496
0.0036325997
-0.0041740364
0.0023455205
0.0020666604
-0.0022716303
0.0028900623
0.0030768383
0.0030706283
0.0031581013
-0.0019651602
0.0029315199
0.002051442
0.0031659906
0.003339674
0.004849297
-0.0022357854
0.0024897752
-0.0031457916
-0.0025951257
-0.0018377596
-0.0014685949
0.002856453
-0.0020804894
1.8953262e-05
0.0022536528
0.0027569525
0.0028967618
0.0022446997
-0.0028010018
-0.0026735384
0.0035942772
0.0021062365
0.003461289
0.004395276
0.0036460331
0.002709905
-0.0032709008
0.0027951028
-0.001468784
0.00012488931
0.0024870455
0.0026765668
0.002477887
-0.0023549427
0.0028847558
0.002287343
0.0036097127
0.002604715
0.0027772374
-0.0023835097
-0.0025646363
-0.00071081845
0.0028843696
0.0032260206
-0.0010413354
0.0023467669
-0.0025239217
-0.0028995567
0.0032202818
0.0020220869
-0.0031653976
0.0024220978
0.0027427892
0.002879283
0.001949836
0.002265229
0.0037958103
0.0025520744
-0.0026937593
-0.0017774308
0.0011279532
-0.0021605345
0.003821635
-0.002685174
0.0027960634
0.0025166853
0.002909251
0.0020850417
0.0029464061
0.0024119823
0.0019332137
-0.002460229
0.002081839
0.002236119
0.0021112852
0.00269651
-0.0028252455
-0.0027630837
0.0015107204
-0.0034236123
0.0026388618
0.0029703728
-0.0027741457
-0.0024368996
-0.0026303097
-0.0030931428
0.0032458596
-0.0021891799
0.0022863075
0.00072783604
0.0026786858
-0.0038888867
-0.0004794378
0.003162918
-0.0017509898
-0.0025723088
0.0026299579
0.0038024813
-0.0025864893
-0.0010592669
0.0021396584
-0.0018027562
0.0024383778
-0.0029179526
-0.002117715
0.0024997066
-0.002919733
0.0024071995
-0.0024502152
0.0028075597
-0.0023535793
0.003079057
0.0042417613
-0.0022342599
-0.0025903631
-0.002872605
0.0022273795
-0.0024744824
0.0020344306
-0.0030031304
0.0034517183
-0.0027121447
-0.0022490602
0.0028078263
0.0027707263
-0.0026209734
0.0008160895
0.0028074959
-0.0026271425
-0.003608931
0.0031985044
0.0022012691
0.002633495
0.002327376
-0.002580114
0.0022795275
0.0032652551
0.00054188544
-0.0030727119
-0.002774448
0.0030664185
0.0022968007
0.0025396398
0.001985775
0.0026034857
0.001571688
-0.0028411017
0.0023788346
0.0031622418
0.0024626711
0.003195715
-0.0031475394
-0.0027570326
-0.0027626953
-0.0027125478
0.0025665895
0.0024643245
0.0012202074
0.0021857165
-0.002878367
-0.0025751023
0.0034070897
0.00249812
0.002061413
-0.0029419994
0.002964846
0.0023849818
0.003554509
-0.0027661358
0.0029538332
0.0029936002
-0.0029598475
-0.0032275363
0.0023795182
0.00283245
0.0023944487
0.0036491766
-0.004040779
0.0024274958
0.0023951095
0.0010863923
-0.0028964235
-0.0023083533
0.0031454754
0.00038113806
0.0035912143
0.0031567854
0.0026105288
0.0021919787
-0.0029992044
-0.0022496344
0.003602453
0.00247068
-0.0026471673
-0.002594626
-0.003228334
0.00381815
-0.0025261703
0.0026448467
0.0029672522
0.00067766977
-0.003773383
0.003430426
0.0027731545
0.0025478506
0.0023215003
0.0004453179
-0.0023920608
0.002305979
0.0024517248
-0.0038933593
-0.0030906566
0.0020195136
0.001056268
-0.0027142786
0.0016159951
0.0012013798
0.003197089
0.0021553785
0.0035694975
-0.002306696
0.0030026678
0.001131876
0.0025454364
0.002816897
-0.00344657
-0.0038351752
-0.0025407055
0.0010668308
-0.0026100595
0.0032088207
0.0027063438
-0.0021869598
0.0009882804
0.0025482331
-0.0026560354
0.0027223574
0.0023196687
-0.002414891
-0.0003034013
0.0028856085
0.002465994
0.00375269
0.0020951217
-0.0032020085
0.0035670993
0.0026695307
-0.0029926025
0.002570001
0.0029240344
0.002928912
-0.0023742479
0.0027925707
0.0030036012
-0.0009758037
0.00014958589
0.0027296618
-2.6430291e-06
0.0021063737
0.0025043504
0.0030764726
0.0021109714
-0.0025707548
-0.0027821034
0.0032050787
0.0025003017
-0.003030842
-0.0020456049
-0.002579856
0.0026542805
0.003112425
-0.002645575
0.0026201261
-0.0029394466
0.0032408016
-0.0038723883
0.0019149501
0.0025385167
0.0021215882
0.0045055402
0.0041443803
0.0029997784
-0.0033324787
0.0025231608
-0.0025457563
-0.0026373414
-0.0025956305
0.0029133796
0.0030469727
0.0026737961
0.0027094376
-0.0038506112
0.0028045492
-0.0026505536
0.0028217998
0.0026135915
-0.0026453156
0.0026825678
-0.0034349472
0.002985719
0.0028344262
0.0023945149
-0.0027815865
0.0042205066
-0.0046993666
0.0027918327
8.74938e-05
0.0017640773
0.003366032
0.0028023825
0.0035489434
0.0032425271
0.002610729
0.0024691008
0.00048682463
-0.002192119
0.0031685862
-0.0034930892
0.0030212717
0.0026402613
0.0026117521
0.003179506
0.0023189231
0.002616627
0.0023982078
-0.0030285527
0.0030021989
-0.0029136918
0.0025973958
0.0025093013
-0.0010698992
0.003889725
0.003470717
0.0027613735
0.002692248
-0.0025644298
0.0025136052
0.0034834284
0.00088622107
-0.002569398
-0.0024490976
0.0030369987
0.002872567
-0.0027339119
0.002800247
0.0022805273
-0.0021387276
0.0026651332
0.0032611408
0.0022972778
0.0027898804
0.0028729443
0.003065856
0.0028534313
0.002519043
0.0018454132
-0.0032920467
4.8088255e-06
-0.002439831
-0.0028981867
-0.0027334886
0.0006426786
-0.0031090209
0.003141212
0.0027208058
0.0027022413
-0.0023537562
-0.0024140275
0.0019117332
-0.0027317796
0.003040187
0.002006114
0.0020937372
0.00033139522
0.002342266
-0.0017814378
0.0019921071
0.0029866172
0.0029237494
-0.0030748143
-0.0022672391
0.0022406152
0.002651041
7.899446e-05
0.0032561445
0.0023554808
0.0013128186
0.0012141763
-0.0024738922
0.0030656627
-0.0010575003
0.0030587637
-0.0024458282
0.002569193
0.002543038
0.0029427144
0.0029785237
0.0022938899
0.0022259
0.0024903084
-0.0024335396
0.0028646567
0.002414442
-0.0017214824
-0.0026329376
0.0021166368
0.00258155
-0.0028498853
0.002102017
-0.0023194314
-0.0030909723
-0.00095351477
-0.00295211
0.002486918
-0.002816235
-0.002580303
-0.0028637773
0.0029433866
0.002286833
0.0027312182
0.0027071189
0.0028562178
0.0035279691
-0.0027662162
0.002779001
-0.002328775
0.0023656958
0.0025933299
0.0027241446
0.0012455593
-0.0032141411
0.00229442
-0.003108934
-0.002691384
-0.0032851729
-0.0023521371
0.003308726
0.004061414
-0.0031553009
0.0025205242
0.0024678453
-3.157909e-05
0.0029887385
0.003040623
-0.002024446
-0.0026434148
0.0028664728
-0.0025388002
-0.0024904343
-0.002717643
0.0028052074
-0.0034667444
0.0026311905
0.0002292812
0.0025775726
-0.0042075575
0.0027363682
0.0023309707
0.002434315
-0.002468382
-0.0021925925
0.0026309555
0.0033129598
0.0033805638
0.0026713575
-0.002322343
0.0026368878
0.0007672254
-0.0022838786
0.0030208149
0.0036726084
-0.003063098
-0.0028181209
0.0030524503
0.0028998896
0.0024965103
0.0024659066
0.0030150027
0.0027475145
-0.002513969
0.0031410677
0.0023813834
-0.0034871525
0.0026707398
0.0015670387
-0.003783768
-0.002165982
0.003305118
0.0027571535
0.0034562093
0.0018744433
0.00309431
-0.002192592
-9.3633535e-05
0.0026056205
-0.004374294
-0.0028774936
0.0030880938
0.0029849266
-0.0022981772
0.0023892606
0.0036023501
-0.0027125312
0.0016123342
0.0014173733
0.002679453
0.0024075876
0.0037463699
0.0025059143
0.002625849
-0.0026316126
0.0028099907
0.0029902752
0.0026642478
-3.683114e-05
0.0032838923
-0.003090588
0.0026390958
0.0021567268
-0.0028347916
0.002518602
0.0027648308
0.0023671794
0.002894486
0.0025716955
-0.0020329086
0.0041203406
0.003096128
-0.0029896349
0.0029474264
0.0029849987
0.0022846477
-0.0024318448
0.0027092197
0.0030420413
-0.0028059343
-0.0022829925
-0.0032198909
0.0025016626
0.0033090904
0.0027164808
0.0026316713
-0.0035699084
0.002999647
0.0030025546
0.0035817027
0.002310186
0.002561189
0.002757053
-0.002454165
0.0032900013
0.00314057
0.0028557878
0.0033029667
0.0016562114
0.0023851723
-0.002612312
-0.0026082196
-0.0016673983
0.0037432285
-0.0025337688
-0.0023202882
-0.0037951248
0.0027334027
-0.0014778643
0.0022698087
0.0026939926
-0.0027302012
0.0021956174
0.0031337163
0.0023147173
-0.0024035058
0.0031043813
0.0036585703
-0.0024683438
-0.002207945
-0.003530088
0.0026360138
0.0031618723
0.0030758758
-0.0028504168
0.0026188588
0.002727933
0.0026048378
0.0031990462
0.0024390088
-0.003052411
-0.0019704916
8.487677e-05
-0.0027009272
-0.0023374544
0.0021897256
0.0026756837
0.00357632
0.0037703759
0.0011661537
-0.0036140985
-0.0017784123
-0.0023392942
-0.0020181024
-0.0026698369
-0.002286423
-0.0025074438
0.003338469
-0.0027731417
0.002434498
0.0023154507
0.0035565787
-0.0026500989
0.0035109096
-0.002403935
0.0035236261
0.0031040695
-0.0032235812
0.0028079618
0.0029283708
0.0029875159
0.0010921694
-0.0026816335
0.0027003344
0.0028871861
0.0033643672
-0.0038049405
-0.0022643246
0.0030349314
0.0005025736
0.002563427
-0.0030870854
0.0031100486
-0.0029102915
0.0022377057
-0.0025704124
0.0030399344
0.0025371306
0.0028726917
0.0024913352
0.0035262727
-0.003115535
0.0024148582
0.0024558462
0.0028296344
0.0026519808
0.0020176421
0.003489623
0.003532286
-0.0012599078
-0.002415683
0.0025361257
-0.0033967094
-0.0017517091
-0.0024338448
0.003439308
-0.002181294
0.004167436
-0.002543822
0.003463612
-0.0026933493
-0.002949746
-0.0032684447
0.0029063353
0.00020260019
0.003409769
0.002932631
0.0021040444
-0.0025944551
0.0025132776
-0.004278393
2.4242363e-05
0.0016302542
0.004857344
0.0008147129
-0.003054945
0.0028392137
-0.003074072
-0.002630971
0.0024750307
-0.002989593
0.0030163953
0.0012048562
4.632857e-05
-0.0032893934
-0.0023797844
-0.0041720388
0.0028567417
0.0029471477
-0.0029241624
0.002352564
-0.0026970226
0.0023985573
-0.0035439064
-0.0033801019
0.0030650236
0.0032134352
-0.0024604509
0.0031118486
-0.002789073
-0.0026694133
0.0025684065
0.00225797
0.0037756022
0.0016447285
0.0026206693
0.0022877483
0.0017435919
-0.0034951216
0.0027737217
0.0011717248
-0.0032286874
0.0031088095
0.001595245
0.0030788006
-0.0027786419
-0.0029562826
0.0026617805
-0.0020234406
0.0026970122
0.0023449026
-0.0025918079
0.0019784537
-0.002525446
-0.0025108734
-0.0026552638
-0.0011206026
0.0016453229
0.00321254
0.0026223008
0.0035785085
0.0027808384
-0.0027506053
0.0023458814
0.0025632584
0.0028746466
0.002764008
0.003045411
0.0038241164
-0.0029500902
0.0024678023
0.0021531847
0.002604926
-0.00075525
0.0028963364
0.0018289947
-6.6560974e-06
-0.002985027
0.0019673647
0.0026150418
0.0027614096
-0.0024923591
0.0041412557
-0.0030174167
-0.0030139363
0.002925381
-0.0028993564
-0.0032564686
0.0021142862
0.0022221126
0.0022557762
0.0033845827
-0.0027367503
-0.0028287256
-0.0027942203
0.0028649534
0.003300335
-0.0025856758
-0.0028510075
0.0030123189
-0.0034198912
0.0030953533
0.0024451287
-0.0032888683
0.0028232392
0.0022731796
0.002459615
0.0035998947
0.002483078
0.0030374825
0.00278345
-0.0036425407
0.0024632462
-0.001360445
-0.002452952
0.002545869
-0.0026827576
0.0025829058
-0.0026553948
-0.0028680582
-0.0015724831
-0.0028347867
0.0024341631
0.0036720631
-0.0028453108
0.0028200543
0.0025769146
0.0017478456
0.0023382148
-0.0015328132
0.0027723953
0.0029445614
0.0030359142
-0.0023588897
0.003045903
0.0024989066
-0.0022332338
-0.0027921428
0.00036044122
0.0037250964
0.0026073523
0.002528855
0.002417496
-0.002510233
0.0037225406
-0.0029019294
0.0024262485
0.0024709257
0.002978488
0.00067067775
0.002466886
0.0037335178
-0.0031369026
-0.0024028525
0.0020408202
-0.0035437632
-0.0017981897
0.0027970513
0.0026832186
0.0034167406
-0.002972048
0.0030391885
0.0028049073
0.0028017731
-0.002408586
-0.0023215015
-0.0022766201
-0.0023669526
0.0022706178
0.0005236209
-0.002933926
-0.002416921
-0.0025349474
-0.0037852207
-0.0027603665
0.002071256
0.002735177
0.0020333927
0.0030065526
0.0029279315
0.003377944
-0.0021610816
-0.0029468017
0.0026924065
0.0013805656
-0.0029996117
0.0025481344
0.0024896879
0.0027712604
0.0022242959
-0.0024522257
0.0029782045
-0.0025705474
0.00067110854
0.0032255654
0.002937034
0.0020223719
-0.0025077641
0.0048834602
0.002624873
-0.0023847593
0.0023368848
-0.0033867103
0.0011090684
0.002444796
0.0038556873
0.004208703
0.001960497
-0.002774925
0.0023995817
0.0022902254
-0.0031277407
0.002651745
0.002854841
0.0027839637
0.0029059295
0.003254322
-0.0024803614
-0.003496006
0.0028908502
0.002995764
-0.0038175376
0.002632571
0.002433581
0.002443726
0.0028886795
-0.002438839
-0.0033913478
0.002742961
0.0021013191
-0.0027641025
0.0029672477
0.0029522341
0.0031253002
0.002691186
0.00019350812
0.0028745588
0.0013086066
0.002241273
0.0030765405
0.0024321657
-6.151897e-06
0.0023774258
-0.0029076443
0.000398297
0.0018229563
0.0020838405
0.003011183
0.002869563
0.0030201026
0.0036030745
0.0035106512
-0.0026812702
-0.0032622067
0.0037669328
-0.0020524045
0.0025399427
0.0030241741
0.0016006634
0.00018990708
-0.0032552918
0.0005386048
-0.0030755196
0.004609698
0.0022435572
-0.0026996662
0.0022691619
-0.00276849
0.0022001385
-0.0031817127
0.002790559
0.0014980611
0.002515873
0.002507034
-0.002014456
-0.0025246665
0.0023993985
0.0022998028
0.0027482905
-0.0035873058
0.0007057292
0.00242995
0.0020609617
0.0027403706
0.0030058275
0.0029121698
5.1444502e-05
-0.0026203464
0.002721874
-0.0027679899
0.0025907825
0.0033000018
-0.002710818
-0.0028812792
-0.003926072
-0.0024908208
0.0025637911
-0.0036889012
0.0005003468
0.0025028363
0.0024973238
0.0029867212
0.002522467
-0.0023754581
0.0032289347
-0.0033717875
-0.0025268341
0.0028435376
0.0021069874
0.0036750175
0.002494194
0.0040220628
-0.002288912
0.0035968279
0.0030794765
6.8131003e-06
0.0020884147
0.0025009918
0.003080335
0.001983887
0.003332183
-0.0015269733
0.0034741228
-0.0027709648
0.0011780908
-0.0024879
-0.0030938564
-0.002777307
0.003947697
0.0021802513
0.0031954527
0.0035845495
-0.0022797612
0.0033976273
-0.0023350045
0.0030450919
0.0018087472
3.6513925e-06
0.0031913451
-0.0020029694
-0.003264324
0.002805038
-0.0023955097
-0.0034779806
0.0020952856
0.00324163
-0.0025652046
0.0028981848
-0.0025426415
0.003197642
0.0027689096
-0.0037817378
0.0024209325
-0.0022859294
-0.0007032626
0.0032288837
0.002473165
0.0023219776
0.0024497868
-0.00210764
0.0035161914
0.0031495555
-0.0026880514
-0.0028287496
0.0020947629
0.0022933783
-0.002219208
0.0029733616
-0.00287176
0.0025220942
-0.0024653254
0.0030481739
0.0013882875
0.0025380726
0.00047498185
0.0021342558
-0.0031833318
0.003036834
-0.0041202623
0.0022831827
0.002138995
0.00262528
-0.0030577676
0.0021202457
0.0022448532
0.0025174164
0.0027387738
0.0036715101
-0.0023204838
0.0026814244
-0.003913681
-0.0036288195
0.004356502
-0.0021506604
0.0030317751
0.0025729842
0.0031943754
-0.0032219398
0.0022580489
1.6960068e-05
0.0018930244
-0.0024816042
-0.0025909871
0.003462711
0.002430101
0.0032024414
-0.0039257794
0.0026675323
0.0027940716
-0.0023179776
0.0021617783
-0.002786188
0.0030419657
0.001146308
0.0025518788
-0.0029035164
0.0030882177
0.0026449803
-0.002666152
0.002983737
0.0028833053
0.00287135
0.0034490726
-0.0027469944
-8.37802e-05
0.0026306403
0.0022583297
0.002976874
0.0025524532
0.0025228024
-0.0026715097
0.0026007562
0.004211994
0.0023068397
0.0023746712
0.0026900307
-0.0019923106
-0.0026170088
0.0022530693
-0.002938764
-0.0014047232
0.0030271073
-0.002585577
0.002751259
0.0028089238
-0.0029419763
-0.0031705492
0.0028216715
-0.0035759287
-0.0028722733
0.0027482756
0.0024711743
-0.0025239429
0.0026672562
0.0022459945
0.0024775648
0.0026376306
0.0034974169
-0.0026159994
0.0031595873
0.0029218001
0.0024315834
0.0012333901
0.0033553
0.00277814
0.0020248948
0.0032737788
-0.0029104082
0.0028117336
-0.0035357394
-0.0031443166
0.0028596718
0.002493157
0.0012455143
-0.0021924418
-0.0027959757
0.0030553718
-0.0031130265
0.00256729
0.0025121013
-0.0031104446
0.0021266995
0.0023005425
0.0029911604
0.0033338882
0.002521932
0.002403735
0.0026663656
-0.002791368
-0.0035682581
0.003021775
0.0040905755
0.0029266297
0.0025702193
0.0022022268
-0.002837195
-0.002737656
0.003443629
0.0024052393
0.003134087
0.003076644
0.0025069898
0.0027957673
-0.002735553
-0.0044752145
0.0025483223
-0.003224907
-6.721724e-05
-0.0027451948
-0.002808863
-0.0011355072
0.0023106243
0.0020981897
-0.0022002808
0.0027766463
0.0024483982
-0.002807129
0.002898247
-0.0029978415
-0.002199156
-0.002421928
-0.0024440251
-0.0024547258
-0.0027780156
-0.0029040964
-0.0027852927
-0.004795101
-0.0031463099
0.0023890596
0.0020842135
0.0022907907
-0.0023018317
-0.0015161248
0.0030467766
-0.002493661
0.0040160026
0.002973221
0.0025231652
-0.0026105223
-0.0022844153
-0.0032460317
0.0021174871
0.003120724
0.0022482097
0.0030277325
-8.918841e-05
-0.0025616342
-0.0021105693
-0.0023923626
0.0018545436
-0.0030320885
0.0025252958
0.0023687882
0.0028578164
-0.0021229044
0.0024059557
-0.0025912148
0.0025064922
0.002339774
0.0027014047
0.0018398737
0.002848043
-0.002605666
-0.002857968
0.003293078
0.002542828
0.00015286227
0.0034302147
0.0010902579
0.0014823778
-0.0026755398
-0.0027469664
-0.003029538
-0.002917313
-0.0027971356
0.003191741
0.0025705425
0.0023405473
-0.0030488102
-0.0023792852
0.002922188
0.002795557
-0.0023784556
0.0028714824
-0.0033577469
-0.0023229904
-0.0029610733
0.0029589976
0.003254875
0.0020165427
0.0023367219
0.0024298627
0.0035601493
-0.0029111772
0.0029532213
0.0026895253
0.0028357804
0.0029938058
-0.002488635
0.0025362163
0.0033580533
0.0032958474
0.0032257617
0.0032075015
0.0026360422
0.0023465648
0.0034142884
-0.0023623416
0.004056594
0.0032236131
0.0030026147
-0.002985918
0.0023982443
-0.003180422
0.0027814948
-0.003095243
7.0298133e-06
0.002147847
0.0022335474
0.0030744635
0.0033957525
0.0029654528
-0.0024661298
0.0026614359
0.0018112548
-0.0029119647
-0.003477466
0.0036338111
-0.0024583843
-0.0019746202
0.0026258014
0.0031294813
0.003921131
0.0020699734
0.002706699
0.0033046785
-0.0031235036
0.0021933042
0.0029762764
0.0036059658
-0.0029743086
0.0028934642
-0.0031646846
0.0026628256
0.0031302695
0.0030321365
0.0027027589
0.0024305468
0.0023557527
-0.0036025841
0.0033604035
0.003635615
-0.0032304833
0.0014113972
-0.0018076893
0.0026384047
0.0027129184
0.0026767643
0.0028697194
0.00237234
0.0036697828
0.0036713756
-0.0027382884
5.646106e-05
0.0008179239
-0.0025855051
0.002785838
0.0023925782
0.0031530752
0.0003682843
0.0026659614
0.0030268421
-0.0030708716
0.0034469229
0.0035878168
0.0023897542
0.0005715083
0.00333816
-0.002958958
-0.0029928861
-0.00051474804
0.0023492777
0.0024915438
0.0025078168
-0.0026095898
0.0029119244
-0.0023303772
0.002371084
-0.002365434
0.003009443
-0.0023725221
8.210142e-05
-0.0022823894
0.0028945846
0.0033099288
0.0023728826
-0.0028661122
-0.0024418256
0.0028366167
-0.0026818092
0.0028223598
0.0030932869
-0.0027906876
-0.002808671
-0.0011117152
0.0033757878
0.002890922
0.0025617129
-0.0029505182
-0.0022712415
0.0023771182
-0.002774154
0.0025795216
0.0033828467
-0.0032716582
0.002841261
-0.0032512294
0.0031164477
0.0019297453
0.0028176794
0.0028353434
-0.002689548
0.0025289895
0.0032565568
0.003307739
0.0027179031
0.002128688
0.0027288178
0.0022788676
0.003185417
-0.0029947998
-0.00039288233
0.002860034
0.0025241747
-0.0025962794
-0.0026358068
-0.0028546443
-0.003094617
-0.003120929
0.0025017122
-0.0030508137
0.002383631
0.0021290104
0.0012089645
-0.0022794073
-0.0028695685
0.002736726
-0.0034791224
-0.0024175204
0.0022737354
0.0024259367
0.0026230954
0.002135701
0.0030451857
-0.0029478394
0.0023522938
0.0023199928
-0.0034440043
-0.0013725101
0.0032451064
-0.0033868714
0.0004608245
0.0026553222
-0.0022410764
-0.0025540409
-0.0020508275
0.0017591096
-0.004367984
-0.0024919477
0.003135737
0.0026919923
0.0025216376
0.0014555712
-0.0031701645
-0.0023745822
0.0032922733
0.0023797252
-0.0027506005
-0.0024842774
-0.0028000404
0.0027158838
0.002747862
0.0031299791
0.0021380177
0.0041842107
0.0026906773
-0.0024701927
-0.0037312922
0.001973755
0.0046840697
-0.0034817054
0.0022111158
-0.0025214485
-0.0031801541
0.00279059
-0.0024723748
0.0025662808
0.0037681598
0.0034753478
0.0035805278
-0.0023919693
0.0030372606
0.003621604
-0.0020413634
0.002834384
-0.0028402752
-0.0023849977
-0.0028441574
0.00021467371
0.0025630118
-0.0037668827
-0.003050144
0.0030275038
-0.0036483516
0.004649014
0.0030022962
0.0026793915
0.0030820104
0.0026761333
0.002521381
0.0025966412
0.00013344307
0.0027583675
-0.0033451666
0.003996075
0.0030289344
0.0033345288
0.0027076614
-0.0030696888
0.0036543205
-0.0020725802
0.0029586155
0.0029748364
0.0029964193
0.0029617778
0.0032037282
0.003764582
0.0026598687
0.002914901
0.0026467904
0.0019037211
0.0014657805
0.0019392734
0.0031356225
0.0030780074
0.0016762759
0.0024523817
0.00226618
-0.0031898264
-0.0025325583
0.0024544029
0.0038011128
0.0030136278
0.0030627574
0.002813292
0.0025732624
0.00068249996
-0.003094515
0.0027140498
-0.0022853075
0.002354039
0.0028192215
-0.0027513406
0.002969351
0.0031637372
0.0033592023
-0.0026326845
-0.0031471767
-0.004445784
-0.0019456601
-0.0022405623
-0.0035639934
0.0029151149
0.0024005
-0.0023560799
-0.0033960997
0.0033100336
0.002959524
0.004115901
0.0028314122
-0.0032579359
0.0019321779
0.0029020535
-0.0022083442
0.003384153
0.0021938642
3.0556832e-06
0.0011592993
0.00263442
0.002731557
-0.0025193845
-0.0030753934
-0.002092204
0.00266514
-0.0030968601
0.0027868834
0.0029831908
0.0035733122
-0.0032513384
-0.0026752031
-0.002472259
0.002932265
0.002872098
0.0026534947
0.0031051082
0.003150667
0.0027287423
0.0026353742
-0.002660989
0.0025535116
0.0025467072
0.0033945679
-0.0034827064
-0.0021738636
0.0034179837
-0.003425815
0.0026278545
0.0020741127
-0.002359634
0.0027168435
0.0029214502
-0.0025070317
-0.0027005095
0.0023330266
0.0013335232
0.00097367255
6.880102e-06
-0.0027384725
0.0030396958
0.0023959894
0.0023151843
0.0032710743
0.0027963012
-0.0031862904
-0.0012493143
-0.0011128566
0.001622672
0.0030596482
-0.0033745042
-0.002494978
0.002801571
0.0026687668
0.0028069578
0.0020341026
0.00273662
-0.0029935152
0.00227512
-0.0021777481
0.0022819147
0.002309164
0.003089949
-0.0017795628
0.0028350402
-0.003386638
0.0041568074
0.000102211256
0.0005518518
0.0029868346
0.0036701858
0.0025366945
0.002786789
0.0024103303
-0.0025851938
0.0023437531
-0.0030061142
0.0020883726
0.0031114644
0.0033843757
-0.002336695
0.0020003312
-0.0031700297
0.003319367
0.0029666447
-0.0034847518
-0.0030193105
0.0026930235
-0.002036326
-0.0031782133
-0.0023251898
0.0031963857
0.0023089554
0.0036332
0.0030287942
0.0028734729
0.002401578
-0.0031244
-0.002426966
0.0027799318
-0.0021088156
0.002101003
0.003236598
0.0031977429
0.0028282024
0.0028900343
0.0023913744
-0.0024750133
-0.0029644994
0.0027686306
-0.00260057
0.0022901995
0.0023607165
-0.0029389907
-0.0034022818
0.0033617713
0.0025985045
0.0033813855
-0.0034494635
-0.002466254
-0.00059485214
-0.0028843994
0.002007169
0.002335413
-0.0027542927
0.0025092086
-0.0025919478
0.00262397
0.0026767538
0.002467538
0.0034654262
0.002612326
0.0028457812
0.0023865001
0.0031049056
0.0030266037
0.0029524202
0.002196151
0.0024974206
-0.0035876583
-0.0017541911
0.0028137325
0.002945752
0.00018699701
0.0029416902
0.002273301
-0.0009545793
-0.0024514513
0.0025499344
-0.0029213405
0.0025263296
-0.0029889173
0.002252875
0.0026937102
0.0025410582
0.0027971666
0.0028654502
-0.0025831705
0.0021633164
0.0020807702
0.0038803257
-0.0028956064
0.0032007992
0.0021707586
0.0027310166
0.0023414781
0.0030055426
0.0027084032
-0.0023354548
-0.0025363434
0.00023802888
0.0029229452
0.002613422
-0.0026737626
-0.0027666974
0.00011296906
0.0033710792
0.0024656148
0.0022912156
0.0036198697
0.0012160586
0.002870908
0.0022500376
0.0032218779
0.0031760202
-0.0028925184
0.004155907
-0.0032687378
0.002384495
0.0022709365
-0.0026363826
0.002248561
-0.0026988464
-0.003340504
0.0027095191
0.0026768644
-0.0030206752
0.0028880124
0.003077962
0.0022309332
-0.0023856019
-5.851056e-06
0.0029637595
0.0034756341
0.002460135
0.002831243
0.002416365
0.00029179404
0.0027597477
0.0030959412
0.0028732156
-0.0029718298
-6.36043e-05
1.8482104e-06
0.0023682527
0.0031617542
-0.0020699438
-0.0007420418
0.0020919477
1.02923495e-05
0.0022486036
0.0031992695
0.0023636958
-0.002008044
0.0030223783
0.003290925
0.0028800978
0.0032660384
0.0033100173
-0.0030077458
0.0032813111
0.004443986
-0.0030848556
-0.0024157146
0.0024277843
-0.00232828
0.0026112788
0.0028387834
0.002519639
-0.0027314052
-0.0020348274
0.0022328838
0.0033128334
-0.0029941162
0.0026564992
-0.0026305544
0.0031460414
0.0026501922
0.0015015824
-0.002349339
0.001964373
-0.003839307
-0.0026078974
-0.0028538129
0.0025820383
-0.0032633943
-0.0028613936
-0.0028625387
0.0006262077
0.002496339
0.0042505334
0.0027640462
-0.003204074
0.0024303605
-0.0023855611
0.00258677
0.0023545185
-0.0030748216
0.0022827112
0.002813327
0.002368026
0.0024129115
-0.0010489098
-0.0027833313
-0.0026499764
0.0021848197
0.002669264
-0.0024774536
0.002672101
-0.0030586328
-0.00049414963
0.0029688003
0.002044241
-0.0027718362
-0.0028426414
0.0027384807
0.0024353613
0.0009626458
0.0026559625
-0.002609737
0.0023976162
0.0032984214
0.0034182959
-0.0027935393
-0.0032629187
0.002441629
0.0031489215
-0.0029163084
0.003372542
-0.0035609722
0.0026694732
0.0026729407
0.0028680735
-0.003305746
-0.0023908098
0.0024893594
0.0037650787
0.0028503374
0.0021531135
0.003135328
-2.2179927e-06
0.0025500804
0.0027023833
-0.0023973486
0.004094128
0.0025022235
8.466571e-05
0.0023590063
0.0032081823
0.0029489042
0.0031838692
0.003117202
0.0029981579
0.0029993302
0.0019815648
0.0023991987
-0.0024058614
-0.000474164
-0.0025844593
0.0028499137
-0.003046825
-0.0028296357
0.002476993
0.0033818285
0.0023996022
0.0032525428
0.0024727548
-0.0022785938
0.0028510152
-0.002537211
0.0029056263
-0.0024489516
0.0026807766
0.0031782296
0.0029497654
-0.0033185824
0.0031099943
-0.0025626856
3.8345993e-06
0.0025642375
-0.0035357897
-0.0027478344
0.0026611974
0.0018082816
0.0025746597
-0.0024990288
0.0029653127
0.0024420975
-0.0022428352
0.0029198416
-0.002463892
0.0020378332
-0.0034114486
0.0029101379
-0.0021942852
0.002867228
-0.0035971336
0.003998317
-0.002374633
-0.0024828091
0.0020777201
0.0025381194
0.0021670118
-0.0023396483
-0.0020538396
0.0028258783
0.0021603995
-0.0024839232
-0.0022768208
0.0028261328
0.0050452007
0.0028214236
0.0025444992
0.0026928834
-0.0029343395
0.0026938675
0.0022993474
0.002773091
0.00054930395
-0.0024704598
0.0023125198
-0.0027268478
-0.0026701612
0.0029433859
0.0023851094
-0.003183559
0.0029087903
0.0032591566
0.0041495953
-0.0025153346
0.0030653912
0.0024742777
-0.0030095438
0.002525753
0.0028091208
0.00020003042
0.0029248914
0.0022796805
0.00271288
0.0032997618
-0.0025844416
-0.001419938
0.003244003
0.0033837217
0.0024665087
0.0025089486
0.0026438618
-0.0021894525
0.0027830135
0.0029749174
0.0025333704
0.0034259253
0.002501722
-0.0028027848
-0.002313517
-0.0027061054
0.0023511725
0.0032846248
0.001975372
0.002202666
0.0025017255
0.002373836
0.0019856652
0.0043823086
0.003888572
0.002170378
0.0028732729
0.0021584106
0.0026916622
0.0029270148
-0.0022941958
0.0028442424
0.0036459595
0.0043139276
-0.0027836275
0.002336279
0.003399437
0.003336504
0.0021984878
-0.003080146
-0.0022327171
0.0029243978
0.0026339763
0.0025979553
-0.0023299905
0.0026655963
0.0026328948
0.003295951
9.392563e-05
0.0028967203
0.0029143868
0.0033980208
0.0026047812
0.0031164428
0.0027720875
0.0009810261
0.004600254
-0.0026417219
0.0032102256
-0.0028089078
0.0024625773
-0.0032533768
0.0027685114
0.002277451
0.0029018666
-0.0030147042
0.0021963809
0.002983972
-0.0029265305
0.002711191
0.0028394104
-0.002981359
0.0022256044
-0.002787205
0.002923776
0.0030110208
0.0035571777
0.0024179737
0.0025710347
-0.0006859226
-0.0031794435
-0.0028915438
0.0028262406
0.002988872
0.002425382
-0.0022653737
0.0027161965
-0.00242395
0.0022302459
0.0037720227
0.0025200308
-0.0033674696
0.0024180803
0.002921038
0.0028525812
0.002222365
0.0018898854
0.0027032257
0.0023697698
0.003138605
-0.0025549848
0.0024492824
-0.0028062612
0.0026553702
0.0029350757
-0.0024753832
0.0034531364
0.0007930222
0.0022443538
0.0022362538
-0.00030830034
-0.002421786
0.0016830029
0.00297443
0.0023310585
-0.0025567552
-0.00322742
0.0025461311
0.0026005341
0.0030422402
-0.0037993088
0.0025761114
0.0035448337
-0.002690763
-0.0026827545
-0.0021715595
0.0026742765
-0.003453619
-0.0031664984
0.003658932
-0.0025073783
0.0032249545
0.0025073693
0.0034483608
-0.0026197077
-0.0025644014
0.0030947418
-0.002097692
0.0029833764
-0.0025137677
0.0034191716
0.002336509
0.0015588725
-0.0021262004
0.0038203942
-0.0040518106
0.002723554
0.0027706334
-0.002271327
0.0013955015
0.0027595565
0.0033540998
0.002642309
-0.002170186
0.0032808022
0.0020009687
0.0004387237
-0.0024963426
0.0033663982
0.001407406
0.0026231422
-0.00347527
-0.002631665
0.003081711
0.0030785915
-0.0024372812
0.0025348272
0.00239526
0.0032045457
0.0026054112
0.0027411531
-0.00037763256
0.003081103
0.0016395779
-0.0027535
0.0031914983
0.0031380558
0.0037241285
0.0033342661
0.0031574005
0.0022107274
0.0029574914
-0.0026847576
0.0019489735
-0.0027605626
-0.0035534685
0.0025528057
0.002927911
0.0022967716
0.0022852872
0.0025941147
-0.0027167886
-0.0023499893
0.002036365
0.0038844445
0.0024366986
-0.0050596246
0.003287095
-0.0026358273
-0.00289693
0.0020197644
0.0032980458
0.0022721915
-0.0031351503
-0.0026002808
0.0025098058
0.0024508827
0.0026316831
-0.0025229938
0.00026630147
-0.0016490968
0.0033620095
-0.002735657
0.0028198485
0.0026960764
-0.0040321075
-0.002813985
0.002675078
0.0021787179
0.002179123
0.0024815584
-0.0023815094
-0.0022774057
0.0027176177
0.002294182
-0.002566627
0.0031955745
0.00292842
0.0023249537
0.0022414657
-0.002880005
0.0029864747
0.0020866198
0.003268164
-0.0025477645
-0.0036281338
0.002031934
0.00048810078
0.0024593133
0.0020663564
-0.0021983716
0.0027858415
-0.0030027612
0.0037341297
-0.0029511233
-0.002649806
0.002718875
0.0024548736
0.002223242
-0.00043646837
3.4512334e-05
-0.002733982
0.002624887
0.0020097233
0.0027149434
0.0026848307
0.0022015362
-0.002474868
-0.0027303454
-0.0019372201
0.0028996207
0.0020677052
0.0022213422
0.0027277581
0.0027927267
-0.0035974202
-0.0028085953
0.002326892
0.0028237344
0.0030602724
0.0025878395
0.002777489
0.0024843984
0.002892858
-0.0038823702
0.0027383429
0.0029338568
-0.0039935354
8.5460815e-05
0.0022980806
-0.0031046902
-0.0026476753
-0.003105601
-0.002354434
-0.0020112712
0.0024624413
0.003949539
0.0035480673
-0.0032050724
0.0033697102
-0.0030516866
-0.0039465446
0.0019118048
0.0026412099
0.002599985
-7.207078e-05
-0.0030111258
0.0027059356
0.0034058657
0.00272168
0.002658998
-0.0030823
0.0025787079
-0.002327049
-0.001702817
0.00046518294
0.0029905625
0.0042866864
0.0028834518
0.0001313324
0.0024793278
0.0022510057
0.0026646147
0.0025014107
0.0025528085
0.0027104323
0.003924532
0.0032969825
0.003509849
0.0024204233
0.0034077414
0.0023923474
0.0015518809
-0.0009668074
0.0025658202
0.0033239601
0.002308886
0.0026028575
-0.0023914936
0.00296497
0.0032082086
0.002961872
-0.0030108304
0.0030992776
-0.0030035812
0.0033851052
-0.0034825343
0.0028565796
0.00094313757
0.00046821416
0.0029234649
0.0024996258
0.002491186
0.00253593
0.002651013
0.002454184
0.0031667228
0.0026023402
0.00317499
0.0036131672
0.0027811558
-0.002623034
0.0029542244
0.002183402
0.0034548542
-0.0024815479
-0.0034158023
0.002958879
-0.0031067648
-0.001957587
-0.0030447158
-0.0021887955
0.0021872628
0.0019155494
0.0017113565
0.00019278617
0.0035775972
0.0029122878
0.0024690018
0.0025620824
0.0027207094
-5.0906056e-05
0.0028414903
5.0520986e-05
-0.0023598764
0.0025471197
0.002280037
0.002993163
-0.0024223574
0.0029848744
-0.0025633553
0.002552808
0.0021045913
-0.0026969784
0.0033711796
0.0019100175
0.0028293538
-0.0011538148
-0.002880934
-0.003081096
0.0022210411
0.0032533086
0.0020374723
-0.0031314178
0.002050313
0.0027334194
-0.0028363199
3.484548e-05
0.0026360769
0.002516104
0.0025490166
-0.0027820126
0.0025176788
0.0030433678
0.0023519
0.003449345
-0.0032842264
0.003797149
-0.0021291797
-0.0027988416
0.002361689
0.0027717378
0.002830342
0.0025332524
0.002545233
-0.0023116074
0.0031301628
0.0021111695
0.002691744
-0.0027625125
0.002637834
-0.0035807479
0.00283204
0.002621802
-0.0028992628
-0.0030300377
-0.0030620976
0.002915579
0.0030537809
-0.0033289809
-0.0027018143
0.002225841
0.002555787
0.004551221
0.0026481666
0.0033939353
0.0021930113
0.0024807916
-0.001156208
0.0025000924
0.0039823554
-0.002070533
0.002332448
0.0029899855
0.0025439714
0.0031391643
-0.003094676
0.0029234837
0.0027289176
0.0021270625
0.0028942518
-0.0028725122
-0.0025708564
-0.0027411934
0.0033010982
-0.0023261665
-0.0027736416
0.0025521761
0.0031598695
0.002931697
0.00022178203
0.0024499097
0.0030264144
0.0004410747
0.0034020003
0.0032441113
0.00093060854
0.0025123549
0.0025918076
0.0022404494
-0.002274011
0.00261395
0.002509047
0.0022962384
-0.0028401676
0.0022124012
0.0023927132
0.003434293
0.00035831518
0.0023496416
0.0032681231
-0.0022059428
-0.0028112663
-0.0024428556
0.002242575
0.0042321617
0.0026972948
-0.0023350923
-0.0022174206
0.0024305277
-0.0021023902
0.003778906
-0.002855009
0.0028418836
-0.002814359
0.0033013483
-0.0030560654
-0.0029954237
0.002479106
0.0030697274
-0.0006892697
0.0030692308
0.00265287
0.0011978175
-0.0029751463
4.541727e-05
-0.0025384033
0.003160324
-0.00277201
-0.0027525646
-0.0029337194
0.0026138371
-0.0022056135
-0.0037174262
0.002907283
0.0029254414
0.002932963
-0.0033930491
0.0020814126
0.0026597288
0.0024268993
0.0023842377
0.002874223
0.003098326
0.0032242
-0.0024865053
-0.0025671134
-0.00210612
-0.002532775
0.0031412046
0.0031536222
0.0037560316
0.002940881
0.00292918
0.004426028
-0.0022679758
-0.002871528
-0.002949293
0.0025351855
0.0037241045
0.0019791995
-0.0028785649
-0.0030099982
0.0026270077
-0.0030031705
-0.0028112386
0.0037323092
0.0023181448
-0.0028502827
-0.0023879616
0.0026040305
0.0027886105
0.0032177554
0.0025017175
0.0023745054
0.003195803
0.0021469162
0.0023684734
0.001954084
-0.0035159849
0.0032316088
0.0025681404
0.0032644828
0.0035971312
-0.0025024342
0.00365493
0.0027644597
0.0027460644
0.0028566245
0.0027323759
0.0032855957
0.0023225504
0.0025724678
0.0025678554
0.0027475199
0.002949448
